{"learner":{"attributes":{"scikit_learn":"{\"_estimator_type\": \"regressor\"}"},"feature_names":[],"feature_types":[],"gradient_booster":{"model":{"cats":{"enc":[],"feature_segments":[],"sorted_idx":[]},"gbtree_model_param":{"num_parallel_tree":"1","num_trees":"402"},"iteration_indptr":[0,1,2,3,4,5,6,7,8,9,10,11,12,13,14,15,16,17,18,19,20,21,22,23,24,25,26,27,28,29,30,31,32,33,34,35,36,37,38,39,40,41,42,43,44,45,46,47,48,49,50,51,52,53,54,55,56,57,58,59,60,61,62,63,64,65,66,67,68,69,70,71,72,73,74,75,76,77,78,79,80,81,82,83,84,85,86,87,88,89,90,91,92,93,94,95,96,97,98,99,100,101,102,103,104,105,106,107,108,109,110,111,112,113,114,115,116,117,118,119,120,121,122,123,124,125,126,127,128,129,130,131,132,133,134,135,136,137,138,139,140,141,142,143,144,145,146,147,148,149,150,151,152,153,154,155,156,157,158,159,160,161,162,163,164,165,166,167,168,169,170,171,172,173,174,175,176,177,178,179,180,181,182,183,184,185,186,187,188,189,190,191,192,193,194,195,196,197,198,199,200,201,202,203,204,205,206,207,208,209,210,211,212,213,214,215,216,217,218,219,220,221,222,223,224,225,226,227,228,229,230,231,232,233,234,235,236,237,238,239,240,241,242,243,244,245,246,247,248,249,250,251,252,253,254,255,256,257,258,259,260,261,262,263,264,265,266,267,268,269,270,271,272,273,274,275,276,277,278,279,280,281,282,283,284,285,286,287,288,289,290,291,292,293,294,295,296,297,298,299,300,301,302,303,304,305,306,307,308,309,310,311,312,313,314,315,316,317,318,319,320,321,322,323,324,325,326,327,328,329,330,331,332,333,334,335,336,337,338,339,340,341,342,343,344,345,346,347,348,349,350,351,352,353,354,355,356,357,358,359,360,361,362,363,364,365,366,367,368,369,370,371,372,373,374,375,376,377,378,379,380,381,382,383,384,385,386,387,388,389,390,391,392,393,394,395,396,397,398,399,400,401,402],"tree_info":[0,0,0,0,0,0,0,0,0,0,0,0,0,0,0,0,0,0,0,0,0,0,0,0,0,0,0,0,0,0,0,0,0,0,0,0,0,0,0,0,0,0,0,0,0,0,0,0,0,0,0,0,0,0,0,0,0,0,0,0,0,0,0,0,0,0,0,0,0,0,0,0,0,0,0,0,0,0,0,0,0,0,0,0,0,0,0,0,0,0,0,0,0,0,0,0,0,0,0,0,0,0,0,0,0,0,0,0,0,0,0,0,0,0,0,0,0,0,0,0,0,0,0,0,0,0,0,0,0,0,0,0,0,0,0,0,0,0,0,0,0,0,0,0,0,0,0,0,0,0,0,0,0,0,0,0,0,0,0,0,0,0,0,0,0,0,0,0,0,0,0,0,0,0,0,0,0,0,0,0,0,0,0,0,0,0,0,0,0,0,0,0,0,0,0,0,0,0,0,0,0,0,0,0,0,0,0,0,0,0,0,0,0,0,0,0,0,0,0,0,0,0,0,0,0,0,0,0,0,0,0,0,0,0,0,0,0,0,0,0,0,0,0,0,0,0,0,0,0,0,0,0,0,0,0,0,0,0,0,0,0,0,0,0,0,0,0,0,0,0,0,0,0,0,0,0,0,0,0,0,0,0,0,0,0,0,0,0,0,0,0,0,0,0,0,0,0,0,0,0,0,0,0,0,0,0,0,0,0,0,0,0,0,0,0,0,0,0,0,0,0,0,0,0,0,0,0,0,0,0,0,0,0,0,0,0,0,0,0,0,0,0,0,0,0,0,0,0,0,0,0,0,0,0,0,0,0,0,0,0,0,0,0,0,0,0,0,0,0,0,0,0,0,0,0,0,0,0,0,0,0,0,0,0,0,0,0,0,0,0,0,0,0,0,0,0,0,0,0,0,0,0],"trees":[{"base_weights":[-5.7523074E-3,-2.2670417E-1,1.1891318E-1,-3.7581685E-1,-1.6666663E-1,2.3867056E-2,2.5233245E-1,-4.0114927E-1,6.677179E-3,-1.2899783E-1,-3.4158385E-1,-4.6524037E-2,1.1527773E-1,1.14814684E-1,2.9317924E-1,-3.6197864E-2,-2.767682E-2,-2.280042E-3,-1.5560758E-2,-3.152938E-2,-6.070184E-3,-2.6293166E-3,-3.116049E-2,1.5572394E-3,1.4210224E-2,2.638914E-3,1.983732E-2,2.6260715E-2,1.5023867E-2],"categories":[],"categories_nodes":[],"categories_segments":[],"categories_sizes":[],"default_left":[0,0,0,0,0,0,0,0,0,0,0,0,0,0,0,0,0,0,0,0,0,0,0,0,0,0,0,0,0],"id":0,"left_children":[1,3,5,7,9,11,13,15,-1,17,19,21,23,25,27,-1,-1,-1,-1,-1,-1,-1,-1,-1,-1,-1,-1,-1,-1],"loss_changes":[1.2210731E2,1.4314804E1,3.5937904E1,5.3387985E0,7.5113564E0,1.06490965E1,6.6226273E0,1.2269592E0,0E0,6.149171E0,2.7872372E0,4.388634E0,4.2831087E0,2.9349718E0,3.3196945E0,0E0,0E0,0E0,0E0,0E0,0E0,0E0,0E0,0E0,0E0,0E0,0E0,0E0,0E0],"parents":[2147483647,0,0,1,1,2,2,3,3,4,4,5,5,6,6,7,7,9,9,10,10,11,11,12,12,13,13,14,14],"right_children":[2,4,6,8,10,12,14,16,-1,18,20,22,24,26,28,-1,-1,-1,-1,-1,-1,-1,-1,-1,-1,-1,-1,-1,-1],"split_conditions":[1.875003E-1,1.7745578E-1,3.09954E-1,3.0314088E-1,5.003274E-1,8.464246E-2,7.832433E-1,7.941375E-1,1.563282E-2,3.8475978E-1,3.1193972E-1,5.215814E-1,8.460848E-3,1.4129874E0,3.69184E-1,-6.210414E-2,-4.0755868E-2,-3.8814722E-3,-2.6427047E-2,-4.851893E-2,-1.5526006E-2,-2.728391E-3,-5.8222666E-2,7.671794E-3,3.9154693E-2,9.697652E-3,4.0755868E-2,8.345253E-2,5.1354643E-2],"split_indices":[1,1,26,18,28,18,24,24,0,27,26,28,5,0,27,0,0,0,0,0,0,0,0,0,0,0,0,0,0],"split_type":[0,0,0,0,0,0,0,0,0,0,0,0,0,0,0,0,0,0,0,0,0,0,0,0,0,0,0,0,0],"sum_hessian":[4.433E3,1.599E3,2.834E3,4.59E2,1.14E3,1.655E3,1.179E3,4.35E2,2.4E1,9.38E2,2.02E2,9.35E2,7.2E2,2.7E2,9.09E2,2.28E2,2.07E2,3.69E2,5.69E2,1.69E2,3.3E1,8.99E2,3.6E1,2.83E2,4.37E2,1.67E2,1.03E2,6.85E2,2.24E2],"tree_param":{"num_deleted":"0","num_feature":"30","num_nodes":"29","size_leaf_vector":"1"}},{"base_weights":[-4.700085E-3,-1.4713597E-1,1.446584E-1,5.7483673E-2,-1.9879515E-1,2.7267632E-1,5.59006E-2,-2.4698733E-1,1.2433853E-1,-1.205882E-1,-2.977667E-1,1.3768098E-1,3.13411E-1,1.9565208E-1,-4.1501943E-2,-4.1444465E-3,-2.8192868E-2,3.0556964E-3,2.1442505E-2,-1.5700629E-2,-1.3104904E-3,-1.9853935E-2,-3.3139076E-2,5.642539E-4,1.6496785E-2,3.329735E-2,2.111816E-2,2.7009118E-3,2.225759E-2,1.9647398E-3,-1.1880945E-2],"categories":[],"categories_nodes":[],"categories_segments":[],"categories_sizes":[],"default_left":[0,0,0,0,0,0,0,0,0,0,0,0,0,0,0,0,0,0,0,0,0,0,0,0,0,0,0,0,0,0,0],"id":1,"left_children":[1,3,5,7,9,11,13,15,17,19,21,23,25,27,29,-1,-1,-1,-1,-1,-1,-1,-1,-1,-1,-1,-1,-1,-1,-1,-1],"loss_changes":[9.505226E1,2.4174706E1,2.47818E1,9.383827E0,1.4133705E1,4.910591E0,1.7532455E1,1.6995039E0,4.6683054E0,8.011856E0,4.6660385E0,1.8443086E0,3.4932556E0,7.03557E0,5.350525E0,0E0,0E0,0E0,0E0,0E0,0E0,0E0,0E0,0E0,0E0,0E0,0E0,0E0,0E0,0E0,0E0],"parents":[2147483647,0,0,1,1,2,2,3,3,4,4,5,5,6,6,7,7,8,8,9,9,10,10,11,11,12,12,13,13,14,14],"right_children":[2,4,6,8,10,12,14,16,18,20,22,24,26,28,30,-1,-1,-1,-1,-1,-1,-1,-1,-1,-1,-1,-1,-1,-1,-1,-1],"split_conditions":[1.924684E-1,3.708911E-1,3.7122798E-1,7.649714E-1,4.624758E-1,7.809401E-1,2.9580885E-1,3.536792E-1,8.521639E-1,5.1231965E-2,5.096137E-1,2.0055805E-1,2.8789788E-1,6.613839E-2,4.0833944E-1,-1.3274317E-2,-4.1993767E-2,9.968554E-3,4.2679433E-2,-2.505301E-2,-3.7047376E-3,-2.6993804E-2,-5.2394174E-2,3.104424E-3,4.7860563E-2,1.07485704E-1,6.1936893E-2,1.2065872E-2,6.6474356E-2,4.253066E-3,-2.5582453E-2],"split_indices":[1,27,27,24,28,24,9,27,15,19,28,1,9,14,27,0,0,0,0,0,0,0,0,0,0,0,0,0,0,0,0],"split_type":[0,0,0,0,0,0,0,0,0,0,0,0,0,0,0,0,0,0,0,0,0,0,0,0,0,0,0,0,0,0,0],"sum_hessian":[4.468E3,2.287E3,2.181E3,4.61E2,1.826E3,8.93E2,1.288E3,8.3E1,3.78E2,1.02E3,8.06E2,2.07E2,6.86E2,5.29E2,7.59E2,2.9E1,5.4E1,2.36E2,1.42E2,5.92E2,4.28E2,5.63E2,2.43E2,7.1E1,1.36E2,2.25E2,4.61E2,1.78E2,3.51E2,4.69E2,2.9E2],"tree_param":{"num_deleted":"0","num_feature":"30","num_nodes":"31","size_leaf_vector":"1"}},{"base_weights":[-6.711405E-3,-1.6070607E-1,1.4001746E-1,-2.4536252E-1,-5.9798967E-2,3.579928E-3,2.1881458E-1,-1.2091496E-1,-3.239339E-1,-1.3150069E-1,9.0062015E-2,-1.545453E-1,8.0817E-2,8.333246E-3,2.6052845E-1,1.2019028E-2,-1.1760932E-2,-3.284963E-2,-2.080229E-2,-2.2174763E-2,-5.0735623E-3,2.428095E-2,2.8169705E-3,-2.4134638E-3,-2.7566709E-2,-3.4758355E-3,1.2811054E-2,7.6624397E-3,-2.1788947E-2,2.265746E-2,4.6740784E-3],"categories":[],"categories_nodes":[],"categories_segments":[],"categories_sizes":[],"default_left":[0,0,0,0,0,0,0,0,0,0,0,0,0,0,0,0,0,0,0,0,0,0,0,0,0,0,0,0,0,0,0],"id":2,"left_children":[1,3,5,7,9,11,13,15,17,19,21,23,25,27,29,-1,-1,-1,-1,-1,-1,-1,-1,-1,-1,-1,-1,-1,-1,-1,-1],"loss_changes":[1.01001724E2,1.8631054E1,2.460878E1,1.1596718E1,1.0691568E1,1.0234605E1,1.2739754E1,3.2160544E0,4.0228806E0,6.664691E0,3.7651904E0,6.483776E0,5.5285225E0,5.8717184E0,5.445549E0,0E0,0E0,0E0,0E0,0E0,0E0,0E0,0E0,0E0,0E0,0E0,0E0,0E0,0E0,0E0,0E0],"parents":[2147483647,0,0,1,1,2,2,3,3,4,4,5,5,6,6,7,7,8,8,9,9,10,10,11,11,12,12,13,13,14,14],"right_children":[2,4,6,8,10,12,14,16,18,20,22,24,26,28,30,-1,-1,-1,-1,-1,-1,-1,-1,-1,-1,-1,-1,-1,-1,-1,-1],"split_conditions":[1.4712799E2,1.4421194E2,8.345293E-3,2.4737042E-1,7.341122E-1,6.8104947E-1,6.4814115E-1,2.7155048E-1,7.4187494E-3,7.454204E-3,2.909978E-1,2.5901666E-1,7.035133E-3,3.0897748E-1,3.2086444E-1,4.42751E-2,-2.1119902E-2,-4.8233554E-2,-2.8788492E-2,-3.0653128E-2,-8.505989E-3,3.1180762E-2,5.602247E-3,-1.0218732E-2,-5.719593E-2,-5.0495737E-3,3.6422815E-2,2.2429716E-2,-3.8095728E-2,6.7523636E-2,1.1812174E-2],"split_indices":[23,23,5,10,17,17,17,9,5,5,9,4,5,9,9,0,0,0,0,0,0,0,0,0,0,0,0,0,0,0,0],"split_type":[0,0,0,0,0,0,0,0,0,0,0,0,0,0,0,0,0,0,0,0,0,0,0,0,0,0,0,0,0,0,0],"sum_hessian":[4.47E3,2.181E3,2.289E3,1.186E3,9.95E2,8.38E2,1.451E3,4.59E2,7.27E2,6.73E2,3.22E2,2.75E2,5.63E2,2.4E2,1.211E3,4E1,4.19E2,3.11E2,4.16E2,2.15E2,4.58E2,6.6E1,2.56E2,1.66E2,1.09E2,2.19E2,3.44E2,1.83E2,5.7E1,1.091E3,1.2E2],"tree_param":{"num_deleted":"0","num_feature":"30","num_nodes":"31","size_leaf_vector":"1"}},{"base_weights":[1.1120952E-3,-2.0625392E-1,1.138002E-1,-2.824591E-1,4.761856E-3,2.7018808E-2,2.2669822E-1,-3.4103253E-1,-1.8149872E-1,2.176465E-1,-4.9253654E-2,-4.6045475E-2,1.201657E-1,8.875616E-3,2.602552E-1,-3.3681843E-2,-2.189878E-2,-2.0821614E-2,-2.706993E-3,-0E0,2.4300847E-2,-7.4785464E-3,2.6327426E-2,-1.16313845E-2,9.6372835E-4,1.5248818E-2,1.7303193E-3,-5.1510297E-3,2.9011453E-2,4.0466714E-4,2.2882061E-2],"categories":[],"categories_nodes":[],"categories_segments":[],"categories_sizes":[],"default_left":[0,0,0,0,0,0,0,0,0,0,0,0,0,0,0,0,0,0,0,0,0,0,0,0,0,0,0,0,0,0,0],"id":3,"left_children":[1,3,5,7,9,11,13,15,17,19,21,23,25,27,29,-1,-1,-1,-1,-1,-1,-1,-1,-1,-1,-1,-1,-1,-1,-1,-1],"loss_changes":[1.0506109E2,2.5455437E1,2.8539967E1,6.877487E0,4.829617E0,1.1209009E1,9.253784E0,3.9542542E0,4.942354E0,1.5841761E0,5.579189E0,5.3127356E0,5.005679E0,4.366948E0,7.087425E0,0E0,0E0,0E0,0E0,0E0,0E0,0E0,0E0,0E0,0E0,0E0,0E0,0E0,0E0,0E0,0E0],"parents":[2147483647,0,0,1,1,2,2,3,3,4,4,5,5,6,6,7,7,8,8,9,9,10,10,11,11,12,12,13,13,14,14],"right_children":[2,4,6,8,10,12,14,16,18,20,22,24,26,28,30,-1,-1,-1,-1,-1,-1,-1,-1,-1,-1,-1,-1,-1,-1,-1,-1],"split_conditions":[1.872384E-1,1.4722168E2,3.0799735E-1,3.4464762E-1,6.0052253E-2,1.9846985E-1,1.4643753E2,1.7835985E-1,2.43115E-1,1.8065354E-1,2.973368E-1,2.3294974E-2,3.984174E-1,2.0740314E-1,6.540246E-1,-4.752986E-2,-2.9425599E-2,-2.6481744E-2,-3.6587229E-3,6.2445784E-3,7.1044505E-2,-1.5260257E-2,2.2195159E-2,-1.6769769E-2,1.9479896E-3,4.105392E-2,2.7558913E-3,-5.2752956E-3,6.35909E-2,5.3169094E-3,6.999048E-2],"split_indices":[1,23,26,2,29,1,23,1,16,1,11,11,12,1,17,0,0,0,0,0,0,0,0,0,0,0,0,0,0,0,0],"split_type":[0,0,0,0,0,0,0,0,0,0,0,0,0,0,0,0,0,0,0,0,0,0,0,0,0,0,0,0,0,0,0],"sum_hessian":[4.496E3,1.583E3,2.913E3,1.163E3,4.2E2,1.647E3,1.266E3,7.36E2,4.27E2,8.5E1,3.35E2,9.23E2,7.24E2,1.69E2,1.097E3,3.39E2,3.97E2,2.79E2,1.48E2,2.4E1,6.1E1,3E2,3.5E1,3.41E2,5.82E2,4.23E2,3.01E2,1.4E2,2.9E1,9.9E1,9.98E2],"tree_param":{"num_deleted":"0","num_feature":"30","num_nodes":"31","size_leaf_vector":"1"}},{"base_weights":[-3.6871464E-3,-1.9565214E-1,8.823528E-2,-2.6382375E-1,-5.2355486E-3,-5.0499417E-2,1.470588E-1,-3.539324E-1,-2.1870598E-1,1.7088555E-1,-5.1155027E-2,5.2752234E-2,-1.4731175E-1,2.7563143E-1,8.746555E-2,-1.2019028E-2,-3.0428099E-2,-2.0101635E-2,-6.726003E-3,2.4945224E-2,-9.24536E-3,-1.3815036E-2,1.9281891E-3,-1.4880748E-2,7.881374E-3,-2.2568608E-2,-1.3580836E-3,2.446484E-2,2.2257345E-3,9.762868E-3,-8.012726E-3],"categories":[],"categories_nodes":[],"categories_segments":[],"categories_sizes":[],"default_left":[0,0,0,0,0,0,0,0,0,0,0,0,0,0,0,0,0,0,0,0,0,0,0,0,0,0,0,0,0,0,0],"id":4,"left_children":[1,3,5,7,9,11,13,15,17,19,21,23,25,27,29,-1,-1,-1,-1,-1,-1,-1,-1,-1,-1,-1,-1,-1,-1,-1,-1],"loss_changes":[7.896536E1,1.8809475E1,2.4694775E1,4.3378677E0,3.0893824E0,9.006429E0,1.6281876E1,1.8740997E0,3.0819626E0,3.1759644E0,2.763651E0,4.741952E0,8.143955E0,4.9529457E0,9.357228E0,0E0,0E0,0E0,0E0,0E0,0E0,0E0,0E0,0E0,0E0,0E0,0E0,0E0,0E0,0E0,0E0],"parents":[2147483647,0,0,1,1,2,2,3,3,4,4,5,5,6,6,7,7,8,8,9,9,10,10,11,11,12,12,13,13,14,14],"right_children":[2,4,6,8,10,12,14,16,18,20,22,24,26,28,30,-1,-1,-1,-1,-1,-1,-1,-1,-1,-1,-1,-1,-1,-1,-1,-1],"split_conditions":[1.4501965E2,1.924684E-1,1.8889242E-1,1.7835985E-1,2.8328934E-1,2.507196E-1,2.8847727E-1,7.8013104E-1,8.288945E-1,2.5197238E-1,1.4202563E2,1.7745578E-1,2.4355182E-1,8.165238E-1,3.2759115E-1,-2.122253E-2,-3.949139E-2,-2.5933046E-2,-1.3590926E-2,7.2693385E-2,-1.3887578E-2,-1.8385341E-2,2.796833E-3,-2.1612018E-2,1.2634712E-2,-3.1158969E-2,-1.5364717E-3,7.626475E-2,2.9228996E-3,2.730486E-2,-1.3165906E-2],"split_indices":[23,1,1,1,9,4,9,21,21,10,23,1,16,21,9,0,0,0,0,0,0,0,0,0,0,0,0,0,0,0,0],"split_type":[0,0,0,0,0,0,0,0,0,0,0,0,0,0,0,0,0,0,0,0,0,0,0,0,0,0,0,0,0,0,0],"sum_hessian":[4.475E3,1.449E3,3.026E3,1.067E3,3.82E2,9.01E2,2.125E3,3.56E2,7.11E2,7.9E1,3.03E2,4.36E2,4.65E2,6.73E2,1.452E3,4E1,3.16E2,5.74E2,1.37E2,5.3E1,2.6E1,1.16E2,1.87E2,7E1,3.66E2,2.29E2,2.36E2,6.01E2,7.2E1,1.227E3,2.25E2],"tree_param":{"num_deleted":"0","num_feature":"30","num_nodes":"31","size_leaf_vector":"1"}},{"base_weights":[2.2261357E-4,-8.863125E-2,1.3091306E-1,-1.558282E-1,1.6283505E-2,2.727272E-1,5.823625E-2,-2.1829852E-1,4.6874933E-2,-1.4545444E-1,9.103637E-2,1.7041183E-1,3.510027E-1,1.1487278E-2,1.6133323E-1,-7.506283E-3,-2.3000441E-2,1.2229951E-2,-4.5432937E-3,-2.3508405E-2,-4.7922963E-3,1.2080266E-2,-5.90411E-3,2.0558968E-2,4.5289197E-3,3.0777384E-2,1.1081382E-2,-5.042335E-3,7.6018213E-3,2.0709228E-2,3.3386287E-3],"categories":[],"categories_nodes":[],"categories_segments":[],"categories_sizes":[],"default_left":[0,0,0,0,0,0,0,0,0,0,0,0,0,0,0,0,0,0,0,0,0,0,0,0,0,0,0,0,0,0,0],"id":5,"left_children":[1,3,5,7,9,11,13,15,17,19,21,23,25,27,29,-1,-1,-1,-1,-1,-1,-1,-1,-1,-1,-1,-1,-1,-1,-1,-1],"loss_changes":[5.216269E1,1.8851574E1,1.873739E1,2.0640583E1,1.2622353E1,4.9333916E0,5.79325E0,1.0675175E1,4.2062674E0,4.1810617E0,7.02451E0,2.6202135E0,2.4573631E0,5.131669E0,4.358284E0,0E0,0E0,0E0,0E0,0E0,0E0,0E0,0E0,0E0,0E0,0E0,0E0,0E0,0E0,0E0,0E0],"parents":[2147483647,0,0,1,1,2,2,3,3,4,4,5,5,6,6,7,7,8,8,9,9,10,10,11,11,12,12,13,13,14,14],"right_children":[2,4,6,8,10,12,14,16,18,20,22,24,26,28,30,-1,-1,-1,-1,-1,-1,-1,-1,-1,-1,-1,-1,-1,-1,-1,-1],"split_conditions":[8.920754E-3,7.163831E-1,7.7452075E-1,6.751057E-2,6.7202724E-3,7.2064316E-1,1.4272687E-1,1.138807E-1,2.3771754E-1,4.39244E-1,8.1411785E-1,7.6167846E-1,1.3169473E-1,7.0642745E-1,8.114932E-1,-1.4743166E-2,-3.5657223E-2,2.4047514E-2,-1.1563891E-2,-2.692086E-2,-1.0863533E-2,2.0640349E-2,-8.236805E-3,6.97319E-2,1.1222624E-2,8.200788E-2,3.5251044E-2,-1.3486224E-2,1.5213741E-2,4.5460954E-2,1.1612289E-2],"split_indices":[5,17,21,11,5,17,19,8,16,22,21,21,8,17,21,0,0,0,0,0,0,0,0,0,0,0,0,0,0,0,0],"split_type":[0,0,0,0,0,0,0,0,0,0,0,0,0,0,0,0,0,0,0,0,0,0,0,0,0,0,0,0,0,0,0],"sum_hessian":[4.492E3,2.674E3,1.818E3,1.63E3,1.044E3,6.16E2,1.202E3,1.246E3,3.84E2,3.3E2,7.14E2,2.67E2,3.49E2,8.27E2,3.75E2,4.43E2,8.03E2,1.9E2,1.94E2,1.21E2,2.09E2,5.24E2,1.9E2,1.52E2,1.15E2,3.02E2,4.7E1,4.37E2,3.9E2,2.07E2,1.68E2],"tree_param":{"num_deleted":"0","num_feature":"30","num_nodes":"31","size_leaf_vector":"1"}},{"base_weights":[-8.84658E-3,-1.7324838E-1,8.031087E-2,-2.950663E-1,-1.11696996E-1,2.123595E-1,2.169575E-2,-3.25726E-1,2.6708697E-3,2.262398E-3,-1.955074E-1,2.693574E-1,9.01059E-2,1.275626E-1,-6.078081E-2,-1.8668398E-2,-3.0977057E-2,-5.2153845E-3,1.7720439E-2,-2.5280021E-2,-7.769919E-3,2.4787057E-2,-2.2257345E-3,-1.441127E-3,1.5580297E-2,-1.3398689E-4,1.5568784E-2,-1.1167573E-2,1.6662984E-3],"categories":[],"categories_nodes":[],"categories_segments":[],"categories_sizes":[],"default_left":[0,0,0,0,0,0,0,0,0,0,0,0,0,0,0,0,0,0,0,0,0,0,0,0,0,0,0,0,0],"id":6,"left_children":[1,3,5,7,9,11,13,15,-1,17,19,21,23,25,27,-1,-1,-1,-1,-1,-1,-1,-1,-1,-1,-1,-1,-1,-1],"loss_changes":[6.5446396E1,1.1771942E1,2.2407429E1,5.306175E0,9.961681E0,6.2016907E0,1.750673E1,2.7210388E0,0E0,6.516211E0,7.105976E0,7.212326E0,3.1916971E0,7.5726223E0,7.2254834E0,0E0,0E0,0E0,0E0,0E0,0E0,0E0,0E0,0E0,0E0,0E0,0E0,0E0,0E0],"parents":[2147483647,0,0,1,1,2,2,3,3,4,4,5,5,6,6,7,7,9,9,10,10,11,11,12,12,13,13,14,14],"right_children":[2,4,6,8,10,12,14,16,-1,18,20,22,24,26,28,-1,-1,-1,-1,-1,-1,-1,-1,-1,-1,-1,-1,-1,-1],"split_conditions":[1.872384E-1,1.7835985E-1,3.6633468E-1,1.8384042E-1,2.8847727E-1,7.807214E-1,2.9580885E-1,7.9252493E-1,5.7685305E-3,7.172205E-1,7.0642745E-1,1.3726103E-1,1.1876177E0,1.9291297E-1,7.221939E-1,-2.0546054E-2,-3.8598094E-2,-7.511012E-3,2.2718577E-2,-3.517511E-2,-1.3078794E-2,6.9492064E-2,-3.1779155E-3,-3.1086388E-3,3.6431853E-2,-3.5888977E-5,4.530187E-2,-2.5606783E-2,2.4368793E-3],"split_indices":[1,1,27,25,9,21,9,21,0,17,17,8,20,1,17,0,0,0,0,0,0,0,0,0,0,0,0,0,0],"split_type":[0,0,0,0,0,0,0,0,0,0,0,0,0,0,0,0,0,0,0,0,0,0,0,0,0,0,0,0,0],"sum_hessian":[4.465E3,1.57E3,2.895E3,5.27E2,1.043E3,8.9E2,2.005E3,4.82E2,4.5E1,4.42E2,6.01E2,6.07E2,2.83E2,8.78E2,1.127E3,1.91E2,2.91E2,3.38E2,1.04E2,2.71E2,3.3E2,5.35E2,7.2E1,1.39E2,1.44E2,2.99E2,5.79E2,5.74E2,5.53E2],"tree_param":{"num_deleted":"0","num_feature":"30","num_nodes":"29","size_leaf_vector":"1"}},{"base_weights":[5.4668274E-4,-9.779178E-2,1.2297495E-1,-2.4521063E-1,-5.9582908E-2,2.240143E-1,5.428666E-4,-2.8554204E-1,-8.8784754E-2,6.1599955E-2,-1.1411085E-1,2.4899593E-1,1.6666483E-2,-1.1320744E-1,6.0530633E-2,-2.7553074E-2,-1.4269235E-2,5.341787E-3,-2.3015214E-2,-4.3264966E-4,2.0279124E-2,-5.9538535E-3,-1.8758131E-2,2.440824E-2,1.4156445E-2,-1.1948763E-2,1.335451E-2,-2.6531168E-4,-1.7033042E-2,1.2279572E-2,-3.720192E-3],"categories":[],"categories_nodes":[],"categories_segments":[],"categories_sizes":[],"default_left":[0,0,0,0,0,0,0,0,0,0,0,0,0,0,0,0,0,0,0,0,0,0,0,0,0,0,0,0,0,0,0],"id":7,"left_children":[1,3,5,7,9,11,13,15,17,19,21,23,25,27,29,-1,-1,-1,-1,-1,-1,-1,-1,-1,-1,-1,-1,-1,-1,-1,-1],"loss_changes":[5.5056213E1,1.4284544E1,2.5198616E1,3.2932224E0,1.3308216E1,5.7807503E0,6.2845616E0,2.6009903E0,3.300848E0,8.018427E0,6.63447E0,4.0065765E0,2.9841926E0,3.4725828E0,5.9801073E0,0E0,0E0,0E0,0E0,0E0,0E0,0E0,0E0,0E0,0E0,0E0,0E0,0E0,0E0,0E0,0E0],"parents":[2147483647,0,0,1,1,2,2,3,3,4,4,5,5,6,6,7,7,8,8,9,9,10,10,11,11,12,12,13,13,14,14],"right_children":[2,4,6,8,10,12,14,16,18,20,22,24,26,28,30,-1,-1,-1,-1,-1,-1,-1,-1,-1,-1,-1,-1,-1,-1,-1,-1],"split_conditions":[1.480403E2,1.1223156E0,6.776765E-2,4.5666477E-1,2.867223E-1,1.3321866E-1,6.285294E-2,1.429624E2,2.647962E-1,4.5561793E-1,1.2722535E-1,2.9648176E-1,1.5103712E2,8.464445E-1,3.0510363E-1,-4.0006906E-2,-1.9195063E-2,1.2392223E-2,-4.893473E-2,-2.7327467E-4,5.1974166E-2,-9.766468E-3,-3.1735364E-2,6.8395704E-2,3.5726044E-2,-2.0485243E-2,4.3518256E-2,-1.145885E-4,-2.904429E-2,2.9331645E-2,-9.044255E-3],"split_indices":[23,20,29,22,9,8,25,23,4,22,8,9,23,24,9,0,0,0,0,0,0,0,0,0,0,0,0,0,0,0,0],"split_type":[0,0,0,0,0,0,0,0,0,0,0,0,0,0,0,0,0,0,0,0,0,0,0,0,0,0,0,0,0,0,0],"sum_hessian":[4.573E3,2.536E3,2.037E3,5.22E2,2.014E3,1.116E3,9.21E2,4.15E2,1.07E2,6.25E2,1.389E3,9.96E2,1.2E2,3.18E2,6.03E2,2.69E2,1.46E2,6E1,4.7E1,4.63E2,1.62E2,1.043E3,3.46E2,5.63E2,4.33E2,5.7E1,6.3E1,1.51E2,1.67E2,3.23E2,2.8E2],"tree_param":{"num_deleted":"0","num_feature":"30","num_nodes":"31","size_leaf_vector":"1"}},{"base_weights":[-1.901987E-3,-1.0233429E-1,1.1449274E-1,-1.6162226E-1,2.8781762E-2,1.7454796E-1,-2.2151863E-2,-2.3671193E-1,-8.956105E-2,1.504423E-1,-2.3992278E-2,3.4161415E-2,2.1505372E-1,-1.2931024E-1,1.0915481E-1,-2.047699E-2,7.2842496E-3,1.1329019E-3,-1.4295845E-2,2.7161657E-3,2.225756E-2,4.326116E-3,-6.2436834E-3,1.794261E-2,-1.2850596E-2,2.1039892E-2,8.576676E-3,-1.7984126E-2,3.5829148E-3,1.0985193E-2,-6.677213E-3],"categories":[],"categories_nodes":[],"categories_segments":[],"categories_sizes":[],"default_left":[0,0,0,0,0,0,0,0,0,0,0,0,0,0,0,0,0,0,0,0,0,0,0,0,0,0,0,0,0,0,0],"id":8,"left_children":[1,3,5,7,9,11,13,15,17,19,21,23,25,27,29,-1,-1,-1,-1,-1,-1,-1,-1,-1,-1,-1,-1,-1,-1,-1,-1],"loss_changes":[5.2241676E1,1.8648884E1,1.6986883E1,8.939045E0,4.796131E0,8.177135E0,8.89263E0,4.994396E0,7.767435E0,3.353869E0,2.1911125E0,1.18871355E1,5.7291374E0,5.761404E0,1.5274811E0,0E0,0E0,0E0,0E0,0E0,0E0,0E0,0E0,0E0,0E0,0E0,0E0,0E0,0E0,0E0,0E0],"parents":[2147483647,0,0,1,1,2,2,3,3,4,4,5,5,6,6,7,7,8,8,9,9,10,10,11,11,12,12,13,13,14,14],"right_children":[2,4,6,8,10,12,14,16,18,20,22,24,26,28,30,-1,-1,-1,-1,-1,-1,-1,-1,-1,-1,-1,-1,-1,-1,-1,-1],"split_conditions":[1.477078E2,1.924684E-1,3.919287E-1,1.4363988E2,2.8847727E-1,6.7447734E-1,1.258985E-1,4.498977E-1,2.9074052E-1,1.995129E-1,-1.10768475E-1,2.893516E-1,3.0622965E-1,7.2145295E-1,3.415243E-1,-2.7365578E-2,7.6408545E-3,2.4872622E-3,-1.8214878E-2,5.323412E-3,5.1745646E-2,5.7110866E-3,-9.090222E-3,5.8708973E-2,-3.0592216E-2,6.0062174E-2,2.330053E-2,-2.8890869E-2,8.940879E-3,2.0901626E-2,-1.4114234E-2],"split_indices":[23,1,27,23,9,17,18,27,9,1,6,9,9,17,9,0,0,0,0,0,0,0,0,0,0,0,0,0,0,0,0],"split_type":[0,0,0,0,0,0,0,0,0,0,0,0,0,0,0,0,0,0,0,0,0,0,0,0,0,0,0,0,0,0,0],"sum_hessian":[4.469E3,2.399E3,2.07E3,1.652E3,7.47E2,1.438E3,6.32E2,8.09E2,8.43E2,2.26E2,5.21E2,3.22E2,1.116E3,3.48E2,2.84E2,7.65E2,4.4E1,3.89E2,4.54E2,1.18E2,1.08E2,2.13E2,3.08E2,1.63E2,1.59E2,7.75E2,3.41E2,2.25E2,1.23E2,2.48E2,3.6E1],"tree_param":{"num_deleted":"0","num_feature":"30","num_nodes":"31","size_leaf_vector":"1"}},{"base_weights":[-6.6607413E-3,-1.0383516E-1,1.0935215E-1,-1.7287041E-1,-1.2333945E-2,-3.4602035E-2,1.6576268E-1,-2.788234E-1,-1.2654318E-1,-1.4864844E-1,1.6685821E-2,-8.298749E-2,2.0833285E-1,2.5744674E-1,8.181814E-2,-2.525021E-2,-7.0700254E-3,-7.661384E-3,-2.3613665E-2,-1.7805882E-3,-2.150783E-2,-6.8926644E-3,3.5781595E-3,-4.1884715E-3,-3.2432374E-2,2.537359E-2,2.2257082E-3,2.3430977E-2,3.2704847E-3,1.1530517E-2,8.902994E-4],"categories":[],"categories_nodes":[],"categories_segments":[],"categories_sizes":[],"default_left":[0,0,0,0,0,0,0,0,0,0,0,0,0,0,0,0,0,0,0,0,0,0,0,0,0,0,0,0,0,0,0],"id":9,"left_children":[1,3,5,7,9,11,13,15,17,19,21,23,25,27,29,-1,-1,-1,-1,-1,-1,-1,-1,-1,-1,-1,-1,-1,-1,-1,-1],"loss_changes":[5.0775776E1,1.5482496E1,1.6671457E1,6.857174E0,4.1694317E0,6.794111E0,1.1352146E1,2.9404984E0,5.055191E0,2.801331E0,2.4963996E0,4.763688E0,1.8777652E0,5.341526E0,3.380138E0,0E0,0E0,0E0,0E0,0E0,0E0,0E0,0E0,0E0,0E0,0E0,0E0,0E0,0E0,0E0,0E0],"parents":[2147483647,0,0,1,1,2,2,3,3,4,4,5,5,6,6,7,7,8,8,9,9,10,10,11,11,12,12,13,13,14,14],"right_children":[2,4,6,8,10,12,14,16,18,20,22,24,26,28,30,-1,-1,-1,-1,-1,-1,-1,-1,-1,-1,-1,-1,-1,-1,-1,-1],"split_conditions":[1.4784796E2,1.8958065E-1,6.7178935E-1,6.650077E-3,1.1355225E0,1.292348E0,3.6633468E-1,1.12587996E-1,2.664911E-1,2.503758E-1,6.288995E-2,2.8285834E-1,2.5825343E-1,2.7675492E-1,3.8681332E-2,-3.5105318E-2,-1.0667867E-2,-9.1000805E-3,-3.0841434E-2,-2.3473904E-3,-3.232769E-2,-8.666317E-3,6.344037E-3,-9.078639E-3,-5.615741E-2,5.4628514E-2,1.3629153E-2,5.4461036E-2,1.4996623E-2,2.7831763E-2,1.7552631E-3],"split_indices":[23,1,17,5,20,20,27,18,4,10,14,4,10,10,7,0,0,0,0,0,0,0,0,0,0,0,0,0,0,0,0],"split_type":[0,0,0,0,0,0,0,0,0,0,0,0,0,0,0,0,0,0,0,0,0,0,0,0,0,0,0,0,0,0,0],"sum_hessian":[4.504E3,2.451E3,2.053E3,1.397E3,1.054E3,5.78E2,1.475E3,4.25E2,9.72E2,1.85E2,8.69E2,4.82E2,9.6E1,7.05E2,7.7E2,3.57E2,6.8E1,8.21E2,1.51E2,9E1,9.5E1,1.86E2,6.83E2,4.4E2,4.2E1,6E1,3.6E1,6.07E2,9.8E1,4.1E2,3.6E2],"tree_param":{"num_deleted":"0","num_feature":"30","num_nodes":"31","size_leaf_vector":"1"}},{"base_weights":[-3.3844719E-3,-9.618793E-2,9.283087E-2,-2.374428E-1,-6.21562E-2,1.7995906E-1,2.1702819E-2,-2.6178646E-1,3.4339724E-3,-2.1806146E-1,-3.991199E-2,1.2689069E-1,2.6240194E-1,1.3968658E-1,-3.37423E-2,-6.934076E-3,-2.5860492E-2,2.8616223E-3,-2.0333812E-2,4.09663E-3,-7.348958E-3,-2.0773627E-3,1.3760998E-2,3.0047724E-2,1.60579E-2,-4.552667E-3,1.5889654E-2,8.49635E-4,-1.348677E-2],"categories":[],"categories_nodes":[],"categories_segments":[],"categories_sizes":[],"default_left":[0,0,0,0,0,0,0,0,0,0,0,0,0,0,0,0,0,0,0,0,0,0,0,0,0,0,0,0,0],"id":10,"left_children":[1,3,5,7,9,11,13,15,-1,17,19,21,23,25,27,-1,-1,-1,-1,-1,-1,-1,-1,-1,-1,-1,-1,-1,-1],"loss_changes":[3.9573845E1,1.0844919E1,1.3485231E1,2.9887047E0,6.3048E0,4.2788467E0,7.8368692E0,4.3049946E0,0E0,2.056982E0,7.503401E0,4.077875E0,2.673603E0,4.4116936E0,4.8637724E0,0E0,0E0,0E0,0E0,0E0,0E0,0E0,0E0,0E0,0E0,0E0,0E0,0E0,0E0],"parents":[2147483647,0,0,1,1,2,2,3,3,4,4,5,5,6,6,7,7,9,9,10,10,11,11,12,12,13,13,14,14],"right_children":[2,4,6,8,10,12,14,16,-1,18,20,22,24,26,28,-1,-1,-1,-1,-1,-1,-1,-1,-1,-1,-1,-1,-1,-1],"split_conditions":[1.9232552E-1,1.7745578E-1,2.9556948E-1,2.0876616E-1,7.7075493E-1,1.6745965E-1,3.6633468E-1,6.42577E-2,2.1720056E-3,5.3147767E-2,6.6139504E-2,7.967836E-1,2.7812037E-1,7.854538E-1,4.8800597E-1,-7.627282E-3,-2.780896E-2,2.121599E-3,-2.7882759E-2,6.3181296E-3,-1.2284482E-2,-4.834784E-3,3.246124E-2,6.133389E-2,4.4220757E-2,-3.4629628E-3,3.0274237E-2,1.1108456E-3,-2.8384997E-2],"split_indices":[1,1,9,18,24,3,27,29,0,29,29,24,9,24,22,0,0,0,0,0,0,0,0,0,0,0,0,0,0],"split_type":[0,0,0,0,0,0,0,0,0,0,0,0,0,0,0,0,0,0,0,0,0,0,0,0,0,0,0,0,0],"sum_hessian":[4.432E3,2.256E3,2.176E3,4.38E2,1.818E3,9.78E2,1.198E3,4.03E2,3.5E1,2.27E2,1.591E3,5.95E2,3.83E2,3.83E2,8.15E2,1.04E2,2.99E2,2.8E1,1.99E2,5.77E2,1.014E3,1.35E2,4.6E2,1.36E2,2.47E2,8.8E1,2.95E2,6.13E2,2.02E2],"tree_param":{"num_deleted":"0","num_feature":"30","num_nodes":"29","size_leaf_vector":"1"}},{"base_weights":[-1.5479831E-3,-8.59504E-2,9.56232E-2,-1.3333331E-1,4.3076884E-2,-4.5454495E-2,1.4164035E-1,-1.0268454E-1,-2.9642835E-1,-4.1528154E-2,1.1604574E-1,-1.5808809E-1,7.9591714E-2,1.5892E-1,-6.5573536E-2,-5.6652273E-3,-1.8022163E-2,-2.072258E-2,-3.839423E-2,-1.36138415E-2,2.0234091E-3,1.265168E-2,-1.3354489E-2,-6.93839E-3,-2.369353E-2,3.507871E-3,2.8616732E-2,2.2079976E-2,9.2048375E-3,-1.8977484E-2,1.7418912E-2],"categories":[],"categories_nodes":[],"categories_segments":[],"categories_sizes":[],"default_left":[0,0,0,0,0,0,0,0,0,0,0,0,0,0,0,0,0,0,0,0,0,0,0,0,0,0,0,0,0,0,0],"id":11,"left_children":[1,3,5,7,9,11,13,15,17,19,21,23,25,27,29,-1,-1,-1,-1,-1,-1,-1,-1,-1,-1,-1,-1,-1,-1,-1,-1],"loss_changes":[3.7087105E1,1.4795132E1,1.3646175E1,8.847622E0,4.0127997E0,7.281642E0,5.675226E0,5.824808E0,1.9344597E0,2.5804508E0,4.1290774E0,2.6760874E0,2.435258E0,7.515644E0,5.912452E0,0E0,0E0,0E0,0E0,0E0,0E0,0E0,0E0,0E0,0E0,0E0,0E0,0E0,0E0,0E0,0E0],"parents":[2147483647,0,0,1,1,2,2,3,3,4,4,5,5,6,6,7,7,8,8,9,9,10,10,11,11,12,12,13,13,14,14],"right_children":[2,4,6,8,10,12,14,16,18,20,22,24,26,28,30,-1,-1,-1,-1,-1,-1,-1,-1,-1,-1,-1,-1,-1,-1,-1,-1],"split_conditions":[1.477078E2,1.9494453E-1,2.9346108E-1,5.096137E-1,1.1355238E-1,1.4254737E-1,2.8285834E-1,2.6380658E-1,2.643318E-1,1.4421194E2,2.7359876E-1,2.584853E-1,1.0661267E0,7.628474E-1,2.0948103E-1,-7.924986E-3,-2.6980234E-2,-2.7647562E-2,-3.3762254E-2,-1.5942832E-2,3.4361864E-3,2.485997E-2,-3.139181E-2,-1.1667033E-2,-4.5206442E-2,8.49557E-3,3.8368747E-2,5.7671864E-2,2.4216034E-2,-5.071279E-2,4.135096E-2],"split_indices":[23,1,26,28,8,18,4,4,4,23,4,4,15,21,1,0,0,0,0,0,0,0,0,0,0,0,0,0,0,0,0],"split_type":[0,0,0,0,0,0,0,0,0,0,0,0,0,0,0,0,0,0,0,0,0,0,0,0,0,0,0,0,0,0,0],"sum_hessian":[4.522E3,2.42E3,2.102E3,1.77E3,6.5E2,5.17E2,1.585E3,1.49E3,2.8E2,3.01E2,3.49E2,2.72E2,2.45E2,1.463E3,1.22E2,1.181E3,3.09E2,2.32E2,4.8E1,1.03E2,1.98E2,3.04E2,4.5E1,1.79E2,9.3E1,2.17E2,2.8E1,4.01E2,1.062E3,7.6E1,4.6E1],"tree_param":{"num_deleted":"0","num_feature":"30","num_nodes":"31","size_leaf_vector":"1"}},{"base_weights":[-6.61955E-4,-7.295898E-2,1.06575325E-1,-7.5642806E-3,-1.3537903E-1,2.1048945E-1,3.963962E-2,8.306184E-2,-8.615815E-2,-1.7796606E-1,4.545445E-2,2.2620784E-1,-1.0015832E-2,1.6995053E-1,1.0474067E-2,-8.137916E-3,1.0551747E-2,-4.885812E-3,-2.0247193E-2,-1.6828453E-2,-1.0946268E-3,1.0142688E-2,-6.047327E-3,1.9775018E-2,6.7901716E-4,5.16949E-3,2.6878105E-2,6.840136E-3,-4.1111587E-3],"categories":[],"categories_nodes":[],"categories_segments":[],"categories_sizes":[],"default_left":[0,0,0,0,0,0,0,0,0,0,0,0,0,0,0,0,0,0,0,0,0,0,0,0,0,0,0,0,0],"id":12,"left_children":[1,3,5,7,9,11,13,15,17,19,21,23,-1,25,27,-1,-1,-1,-1,-1,-1,-1,-1,-1,-1,-1,-1,-1,-1],"loss_changes":[3.513631E1,1.1049812E1,1.2693899E1,9.416155E0,1.0666113E1,3.770443E0,4.2186513E0,5.512131E0,2.969091E0,5.904114E0,2.5899558E0,3.0615234E0,0E0,3.542048E0,4.196645E0,0E0,0E0,0E0,0E0,0E0,0E0,0E0,0E0,0E0,0E0,0E0,0E0,0E0,0E0],"parents":[2147483647,0,0,1,1,2,2,3,3,4,4,5,5,6,6,7,7,8,8,9,9,10,10,11,11,13,13,14,14],"right_children":[2,4,6,8,10,12,14,16,18,20,22,24,-1,26,28,-1,-1,-1,-1,-1,-1,-1,-1,-1,-1,-1,-1,-1,-1],"split_conditions":[8.937585E-3,1.14630915E-1,3.602426E-1,3.9673898E-1,8.360799E-2,3.2572612E-1,2.766684E-1,7.0137023E-3,2.6669928E-1,9.324215E-1,4.167933E-1,6.751254E-2,-1.3705817E-2,7.6138444E-2,-4.5961555E-2,-1.39026055E-2,1.6325828E-2,-6.630566E-3,-2.2561165E-2,-2.295053E-2,-1.2583721E-3,2.575531E-2,-7.3938235E-3,4.057911E-2,2.0322131E-3,1.1810324E-2,5.422764E-2,1.3368303E-2,-6.840517E-3],"split_indices":[5,8,27,27,11,18,9,5,16,15,27,29,0,13,6,0,0,0,0,0,0,0,0,0,0,0,0,0,0],"split_type":[0,0,0,0,0,0,0,0,0,0,0,0,0,0,0,0,0,0,0,0,0,0,0,0,0,0,0,0,0],"sum_hessian":[4.532E3,2.707E3,1.825E3,1.322E3,1.385E3,7.15E2,1.11E3,6.14E2,7.08E2,1.121E3,2.64E2,6.83E2,3.2E1,2.03E2,9.07E2,1.28E2,4.86E2,6.15E2,9.3E1,9.38E2,1.83E2,1.58E2,1.06E2,6.24E2,5.9E1,1.24E2,7.9E1,4.1E2,4.97E2],"tree_param":{"num_deleted":"0","num_feature":"30","num_nodes":"29","size_leaf_vector":"1"}},{"base_weights":[-1.995561E-3,-6.825748E-2,9.712228E-2,1.2092512E-2,-1.1187213E-1,-7.225425E-2,1.3723475E-1,-1.4750943E-1,7.246373E-2,-2.0178275E-1,-6.299557E-2,-1.9186021E-1,4.5976862E-2,2.0717417E-1,7.583544E-2,-1.973283E-2,-3.4700672E-3,-3.835874E-3,9.417355E-3,-2.210409E-2,-8.489321E-3,-1.6419524E-2,-2.86169E-3,-2.0178031E-2,3.4339724E-3,1.3354519E-2,-4.1732783E-3,2.2416573E-2,1.09684365E-2,2.0784347E-3,1.6281573E-2],"categories":[],"categories_nodes":[],"categories_segments":[],"categories_sizes":[],"default_left":[0,0,0,0,0,0,0,0,0,0,0,0,0,0,0,0,0,0,0,0,0,0,0,0,0,0,0,0,0,0,0],"id":13,"left_children":[1,3,5,7,9,11,13,15,17,19,21,23,25,27,29,-1,-1,-1,-1,-1,-1,-1,-1,-1,-1,-1,-1,-1,-1,-1,-1],"loss_changes":[2.9620502E1,9.472495E0,1.227696E1,9.163231E0,7.699194E0,4.8928423E0,6.2738647E0,2.685925E0,3.7419207E0,4.3803005E0,4.394515E0,2.4208388E0,2.0592566E0,3.4846115E0,4.944052E0,0E0,0E0,0E0,0E0,0E0,0E0,0E0,0E0,0E0,0E0,0E0,0E0,0E0,0E0,0E0,0E0],"parents":[2147483647,0,0,1,1,2,2,3,3,4,4,5,5,6,6,7,7,8,8,9,9,10,10,11,11,12,12,13,13,14,14],"right_children":[2,4,6,8,10,12,14,16,18,20,22,24,26,28,30,-1,-1,-1,-1,-1,-1,-1,-1,-1,-1,-1,-1,-1,-1,-1,-1],"split_conditions":[1.4848781E2,2.867223E-1,2.9009604E-1,1.7932972E-1,1.1555611E0,1.6168304E-1,2.929501E-1,1.1260046E0,1.4282066E2,2.4571964E-1,1.8116362E-1,2.051973E-1,8.378017E-2,6.2105566E-2,4.2494398E-1,-2.1054517E-2,-2.0521146E-3,-4.466567E-3,1.4181626E-2,-2.3900634E-2,-1.1220522E-2,-1.9514121E-2,-3.9133565E-3,-3.1434342E-2,9.942809E-3,3.903915E-2,-1.820573E-2,5.8682356E-2,2.9624127E-2,3.9869E-3,3.6950815E-2],"split_indices":[23,9,26,1,20,11,9,20,23,16,1,1,29,29,12,0,0,0,0,0,0,0,0,0,0,0,0,0,0,0,0],"split_type":[0,0,0,0,0,0,0,0,0,0,0,0,0,0,0,0,0,0,0,0,0,0,0,0,0,0,0,0,0,0,0],"sum_hessian":[4.51E3,2.703E3,1.807E3,9.51E2,1.752E3,3.46E2,1.461E3,2.61E2,6.9E2,6.17E2,1.135E3,1.72E2,1.74E2,6.83E2,7.78E2,1.34E2,1.27E2,1.88E2,5.02E2,3.48E2,2.69E2,1.83E2,9.52E2,1.37E2,3.5E1,7.8E1,9.6E1,3.36E2,3.47E2,5.59E2,2.19E2],"tree_param":{"num_deleted":"0","num_feature":"30","num_nodes":"31","size_leaf_vector":"1"}},{"base_weights":[-3.8776821E-3,-7.95216E-2,8.075116E-2,-1.3010031E-1,5.6306077E-3,-4.823147E-2,1.3395223E-1,-2.0476182E-1,-8.969069E-2,1.7045431E-1,-3.5112325E-2,1.4285696E-1,-1.3615015E-1,2.4521063E-1,7.505068E-2,9.426668E-3,-1.8195923E-2,-4.0391153E-3,-1.6976122E-2,-6.677213E-3,1.8887138E-2,-7.1658357E-4,-1.6108043E-2,-9.426668E-3,1.5827607E-2,-2.1251153E-2,1.2264305E-3,2.37344E-2,2.4038022E-3,2.3009519E-3,1.1592023E-2],"categories":[],"categories_nodes":[],"categories_segments":[],"categories_sizes":[],"default_left":[0,0,0,0,0,0,0,0,0,0,0,0,0,0,0,0,0,0,0,0,0,0,0,0,0,0,0,0,0,0,0],"id":14,"left_children":[1,3,5,7,9,11,13,15,17,19,21,23,25,27,29,-1,-1,-1,-1,-1,-1,-1,-1,-1,-1,-1,-1,-1,-1,-1,-1],"loss_changes":[2.8890678E1,1.026332E1,1.4616094E1,4.5104713E0,5.9632807E0,1.0449755E1,9.882357E0,3.7789364E0,4.655238E0,2.914925E0,3.0914693E0,2.791565E0,8.327454E0,5.729086E0,3.1806097E0,0E0,0E0,0E0,0E0,0E0,0E0,0E0,0E0,0E0,0E0,0E0,0E0,0E0,0E0,0E0,0E0],"parents":[2147483647,0,0,1,1,2,2,3,3,4,4,5,5,6,6,7,7,8,8,9,9,10,10,11,11,12,12,13,13,14,14],"right_children":[2,4,6,8,10,12,14,16,18,20,22,24,26,28,30,-1,-1,-1,-1,-1,-1,-1,-1,-1,-1,-1,-1,-1,-1,-1,-1],"split_conditions":[1.477078E2,1.9084886E-1,6.7178935E-1,1.423114E2,2.8328934E-1,2.8350958E-1,5.9763286E-2,1.5153511E-1,1.2648955E-1,-2.0463872E0,3.292246E-1,1.8506227E-1,1.6162094E-1,1.2877208E-1,9.224329E-3,5.646309E-3,-1.9871132E-2,-4.7781034E-3,-2.2404915E-2,-1.8685833E-2,3.823964E-2,-4.3567416E-4,-3.317479E-2,-1.4017979E-2,3.7353694E-2,-3.6639635E-2,2.7522482E-3,5.108023E-2,3.182492E-3,4.5423196E-3,2.7754338E-2],"split_indices":[23,1,17,23,9,9,29,3,8,0,9,1,25,8,5,0,0,0,0,0,0,0,0,0,0,0,0,0,0,0,0],"split_type":[0,0,0,0,0,0,0,0,0,0,0,0,0,0,0,0,0,0,0,0,0,0,0,0,0,0,0,0,0,0,0],"sum_hessian":[4.513E3,2.383E3,2.13E3,1.495E3,8.88E2,6.22E2,1.508E3,5.25E2,9.7E2,1.76E2,7.12E2,1.96E2,4.26E2,5.22E2,9.86E2,3.4E1,4.91E2,7.34E2,2.36E2,3.6E1,1.4E2,6.15E2,9.7E1,3.4E1,1.62E2,2.3E2,1.96E2,4.22E2,1E2,5.92E2,3.94E2],"tree_param":{"num_deleted":"0","num_feature":"30","num_nodes":"31","size_leaf_vector":"1"}},{"base_weights":[-1.6625981E-3,-7.444893E-2,6.905593E-2,-4.8404243E-2,-2.1720102E-1,1.364996E-1,-2.576233E-2,-1.3695644E-1,-1.9718295E-2,-2.9878014E-1,-1.4245789E-1,-4.0855933E-2,1.7870367E-1,2.1311438E-2,-1.0997058E-1,6.5219393E-3,-1.2778099E-2,-3.3260297E-4,-1.8977493E-2,-1.0015832E-2,-2.7316112E-2,-7.233704E-3,-2.861677E-2,-1.21483235E-2,1.02122845E-2,9.046634E-3,1.9955086E-2,-3.3302256E-3,1.1097439E-2,-1.0810827E-2,1.5408973E-2],"categories":[],"categories_nodes":[],"categories_segments":[],"categories_sizes":[],"default_left":[0,0,0,0,0,0,0,0,0,0,0,0,0,0,0,0,0,0,0,0,0,0,0,0,0,0,0,0,0,0,0],"id":15,"left_children":[1,3,5,7,9,11,13,15,17,19,21,23,25,27,29,-1,-1,-1,-1,-1,-1,-1,-1,-1,-1,-1,-1,-1,-1,-1,-1],"loss_changes":[2.3219662E1,8.264962E0,1.4631514E1,4.77558E0,2.0914211E0,1.0007616E1,3.7697663E0,2.2615337E0,4.7996492E0,1.200654E0,2.005189E0,4.790764E0,4.998554E0,4.4943914E0,2.5717506E0,0E0,0E0,0E0,0E0,0E0,0E0,0E0,0E0,0E0,0E0,0E0,0E0,0E0,0E0,0E0,0E0],"parents":[2147483647,0,0,1,1,2,2,3,3,4,4,5,5,6,6,7,7,8,8,9,9,10,10,11,11,12,12,13,13,14,14],"right_children":[2,4,6,8,10,12,14,16,18,20,22,24,26,28,30,-1,-1,-1,-1,-1,-1,-1,-1,-1,-1,-1,-1,-1,-1,-1,-1],"split_conditions":[1.4725723E2,5.0851035E-1,6.928145E-2,6.8130926E-3,7.6683075E-3,6.7280066E-1,4.0833944E-1,3.9138433E-1,2.7615613E-1,7.821875E-3,2.667829E-1,7.124002E-2,1.5092741E2,1.8545474E-1,1.5450098E2,4.6628024E-3,-1.6582316E-2,-2.7254396E-4,-2.3023313E-2,-1.9073538E-2,-3.742167E-2,-1.1199798E-2,-2.5433047E-2,-2.5028601E-2,2.126722E-2,2.2114642E-2,4.7731783E-2,-8.0503635E-3,2.1266956E-2,-1.8640403E-2,2.4163175E-2],"split_indices":[23,28,29,5,5,17,27,28,4,25,4,19,23,13,23,0,0,0,0,0,0,0,0,0,0,0,0,0,0,0,0],"split_type":[0,0,0,0,0,0,0,0,0,0,0,0,0,0,0,0,0,0,0,0,0,0,0,0,0,0,0,0,0,0,0],"sum_hessian":[4.511E3,2.223E3,2.288E3,1.88E3,3.43E2,1.337E3,9.51E2,4.6E2,1.42E3,1.64E2,1.79E2,2.57E2,1.08E3,6.1E2,3.41E2,4.3E1,4.17E2,1.325E3,9.5E1,3.2E1,1.32E2,1.44E2,3.5E1,1.55E2,1.02E2,5.58E2,5.22E2,3.97E2,2.13E2,3.15E2,2.6E1],"tree_param":{"num_deleted":"0","num_feature":"30","num_nodes":"31","size_leaf_vector":"1"}},{"base_weights":[-1.7002901E-3,-5.65152E-2,8.180776E-2,-2.257382E-1,-3.9983504E-2,2.0942396E-1,4.612004E-2,-2.5117347E-1,-0E0,-1.5151507E-1,-1.3747443E-2,2.537536E-1,-9.1836095E-2,-2.3485452E-2,5.3477917E-2,-2.5495037E-2,-1.1376071E-2,-1.6224127E-2,2.8327662E-3,4.7078266E-4,-1.1315686E-2,2.3015292E-2,5.498892E-3,-2.0031672E-2,4.807554E-3,6.6247014E-3,-3.1202186E-3],"categories":[],"categories_nodes":[],"categories_segments":[],"categories_sizes":[],"default_left":[0,0,0,0,0,0,0,0,0,0,0,0,0,0,0,0,0,0,0,0,0,0,0,0,0,0,0],"id":16,"left_children":[1,3,5,7,9,11,13,15,-1,17,19,21,23,-1,25,-1,-1,-1,-1,-1,-1,-1,-1,-1,-1,-1,-1],"loss_changes":[2.0191292E1,7.449852E0,7.960967E0,1.3607864E0,7.098833E0,5.1015224E0,3.409465E0,1.5585432E0,0E0,4.3999023E0,4.9127564E0,2.0639534E0,1.1767187E0,0E0,3.607966E0,0E0,0E0,0E0,0E0,0E0,0E0,0E0,0E0,0E0,0E0,0E0,0E0],"parents":[2147483647,0,0,1,1,2,2,3,3,4,4,5,5,6,6,7,7,9,9,10,10,11,11,12,12,14,14],"right_children":[2,4,6,8,10,12,14,16,-1,18,20,22,24,-1,26,-1,-1,-1,-1,-1,-1,-1,-1,-1,-1,-1,-1],"split_conditions":[1.4848781E2,1.0987483E0,7.5902647E-1,7.614619E-2,6.650077E-3,1.3675208E-1,1.105926E0,3.4963354E-1,-2.6584542E-3,1.2114432E0,2.6920715E-1,1.2289866E0,2.2697583E-2,-4.373662E-2,2.6124156E-1,-3.1970095E-2,-1.2363733E-2,-2.1532387E-2,1.7485209E-3,4.8793035E-4,-1.727096E-2,4.3169707E-2,3.419145E-2,-2.8675668E-2,2.0306086E-2,1.6592842E-2,-6.8065887E-3],"split_indices":[23,20,21,7,5,8,20,2,0,13,4,20,13,0,4,0,0,0,0,0,0,0,0,0,0,0,0],"split_type":[0,0,0,0,0,0,0,0,0,0,0,0,0,0,0,0,0,0,0,0,0,0,0,0,0,0,0],"sum_hessian":[4.411E3,2.663E3,1.748E3,2.37E2,2.426E3,3.82E2,1.366E3,2.13E2,2.4E1,4.62E2,1.964E3,3.33E2,4.9E1,2.9E1,1.337E3,1.32E2,8.1E1,3.63E2,9.9E1,1.702E3,2.62E2,2.82E2,5.1E1,2.4E1,2.5E1,1.016E3,3.21E2],"tree_param":{"num_deleted":"0","num_feature":"30","num_nodes":"27","size_leaf_vector":"1"}},{"base_weights":[6.397302E-3,-1.05101116E-1,4.4605177E-2,-1.549789E-1,-2.1226361E-2,8.177965E-2,-4.6972834E-2,1.0248783E-2,-1.7313427E-1,7.2727144E-2,-1.2254885E-1,1.1039627E-1,-5.155869E-2,-1.4759025E-1,6.389743E-3,-1.0287747E-2,-2.2863546E-2,-6.763967E-3,1.2607431E-2,-2.5923418E-2,-6.5987105E-3,1.3736071E-3,1.0487479E-2,4.9783145E-3,-1.0339004E-2,-1.4400103E-2,2.3566505E-3,4.6710973E-3,-9.79333E-3],"categories":[],"categories_nodes":[],"categories_segments":[],"categories_sizes":[],"default_left":[0,0,0,0,0,0,0,0,0,0,0,0,0,0,0,0,0,0,0,0,0,0,0,0,0,0,0,0,0],"id":17,"left_children":[1,3,5,7,9,11,13,-1,15,17,19,21,23,25,27,-1,-1,-1,-1,-1,-1,-1,-1,-1,-1,-1,-1,-1,-1],"loss_changes":[1.8978823E1,4.7566233E0,1.1295681E1,3.6618843E0,4.036315E0,9.005042E0,5.1437016E0,0E0,3.3635845E0,2.9252648E0,1.648016E0,3.7123966E0,3.6728778E0,1.8878088E0,4.1790156E0,0E0,0E0,0E0,0E0,0E0,0E0,0E0,0E0,0E0,0E0,0E0,0E0,0E0,0E0],"parents":[2147483647,0,0,1,1,2,2,3,3,4,4,5,5,6,6,8,8,9,9,10,10,11,11,12,12,13,13,14,14],"right_children":[2,4,6,8,10,12,14,-1,16,18,20,22,24,26,28,-1,-1,-1,-1,-1,-1,-1,-1,-1,-1,-1,-1,-1,-1],"split_conditions":[7.3373285E-3,9.507123E-1,4.6518543E-1,2.4400495E-1,4.270951E-1,4.0772265E-1,1.668181E-1,1.3257034E-2,8.010797E-2,1.5093699E-1,1.5478224E-1,1.1032025E-2,8.4279746E-1,1.0188207E-1,5.108983E-1,-1.2435091E-2,-3.8173407E-2,-1.1692352E-2,1.9139849E-2,-1.7920407E-2,-9.509119E-3,1.8080658E-3,2.3305455E-2,8.072574E-3,-1.8230747E-2,-1.6247252E-2,1.6669928E-3,9.115703E-3,-1.5300606E-2],"split_indices":[5,15,28,26,28,27,3,0,29,3,3,11,24,18,28,0,0,0,0,0,0,0,0,0,0,0,0,0,0],"split_type":[0,0,0,0,0,0,0,0,0,0,0,0,0,0,0,0,0,0,0,0,0,0,0,0,0,0,0,0,0],"sum_hessian":[4.455E3,1.137E3,3.318E3,7.13E2,4.24E2,2.36E3,9.58E2,4.3E1,6.7E2,2.2E2,2.04E2,1.943E3,4.17E2,3.32E2,6.26E2,4.79E2,1.91E2,7.7E1,1.43E2,3.4E1,1.7E2,3.5E2,1.593E3,1.69E2,2.48E2,2.81E2,5.1E1,4.46E2,1.8E2],"tree_param":{"num_deleted":"0","num_feature":"30","num_nodes":"29","size_leaf_vector":"1"}},{"base_weights":[-1.4481534E-2,6.336334E-2,-5.983204E-2,-2.1008376E-2,1.4783649E-1,-1.8361574E-1,-3.1585723E-2,2.191006E-1,-4.9731147E-2,5.4959714E-2,2.2331144E-1,6.7567185E-2,-2.2428873E-1,1.0623215E-2,-9.672128E-2,3.184535E-2,6.410142E-3,-1.5782643E-2,-6.2274875E-4,9.085064E-3,-7.7045304E-3,8.012714E-3,2.1007594E-2,-1.14466585E-2,1.5677016E-2,-1.0015901E-2,-2.1342324E-2,2.2919716E-3,-1.7850118E-2,-1.0111568E-2,1.7610312E-3],"categories":[],"categories_nodes":[],"categories_segments":[],"categories_sizes":[],"default_left":[0,0,0,0,0,0,0,0,0,0,0,0,0,0,0,0,0,0,0,0,0,0,0,0,0,0,0,0,0,0,0],"id":18,"left_children":[1,3,5,7,9,11,13,15,17,19,21,23,25,27,29,-1,-1,-1,-1,-1,-1,-1,-1,-1,-1,-1,-1,-1,-1,-1,-1],"loss_changes":[1.5967568E1,1.1866699E1,9.992804E0,5.7448626E0,5.8322067E0,5.4248962E0,6.3976293E0,2.2077599E0,4.596424E0,3.293033E0,2.19981E0,1.9944427E0,1.9087467E0,5.9256663E0,3.2009926E0,0E0,0E0,0E0,0E0,0E0,0E0,0E0,0E0,0E0,0E0,0E0,0E0,0E0,0E0,0E0,0E0],"parents":[2147483647,0,0,1,1,2,2,3,3,4,4,5,5,6,6,7,7,8,8,9,9,10,10,11,11,12,12,13,13,14,14],"right_children":[2,4,6,8,10,12,14,16,18,20,22,24,26,28,30,-1,-1,-1,-1,-1,-1,-1,-1,-1,-1,-1,-1,-1,-1,-1,-1],"split_conditions":[2.8847727E-1,1.1600517E0,1.1431857E0,3.483852E-1,6.639596E-2,3.5259664E-1,3.9808327E-1,3.0763673E-2,1.1003134E0,1.23394564E-1,2.3376666E-1,1.1202171E0,1.7288208E-2,1.3918927E-1,1.0706642E0,3.8455978E-2,1.9700889E-2,-1.9332217E-2,-7.5162924E-4,1.7865315E-2,-1.7437264E-2,1.2077487E-2,4.035388E-2,-1.7936703E-2,2.3904352E-2,-1.2197821E-2,-2.7866526E-2,3.9472445E-3,-2.7745444E-2,-1.6916953E-2,2.8421856E-3],"split_indices":[9,20,20,27,14,27,27,18,20,8,4,20,19,8,15,0,0,0,0,0,0,0,0,0,0,0,0,0,0,0,0],"split_type":[0,0,0,0,0,0,0,0,0,0,0,0,0,0,0,0,0,0,0,0,0,0,0,0,0,0,0,0,0,0,0],"sum_hessian":[4.523E3,1.665E3,2.858E3,8.33E2,8.32E2,5.31E2,2.327E3,8.9E1,7.44E2,3.73E2,4.59E2,7.4E1,4.57E2,1.412E3,9.15E2,3.9E1,5E1,1.65E2,5.79E2,2.69E2,1.04E2,1.1E2,3.49E2,2.8E1,4.6E1,1.36E2,3.21E2,1.311E3,1.01E2,7.33E2,1.82E2],"tree_param":{"num_deleted":"0","num_feature":"30","num_nodes":"31","size_leaf_vector":"1"}},{"base_weights":[-1.1175637E-3,-6.821377E-2,6.0017075E-2,-4.0935658E-2,-1.784869E-1,-7.313424E-2,8.2253225E-2,-1.9506706E-1,-1.7821101E-2,-2.637793E-1,-5.0295703E-2,-1.4957248E-1,1.0396007E-1,5.7691913E-3,1.0901748E-1,-0E0,-1.9472273E-2,2.8594097E-4,-1.0990909E-2,-2.3968212E-2,4.807554E-3,1.5023773E-2,-8.480615E-3,-2.4967156E-2,-6.5558613E-3,1.4568562E-2,-3.4339724E-3,4.354743E-3,-8.961596E-3,1.3436739E-2,5.0798426E-3],"categories":[],"categories_nodes":[],"categories_segments":[],"categories_sizes":[],"default_left":[0,0,0,0,0,0,0,0,0,0,0,0,0,0,0,0,0,0,0,0,0,0,0,0,0,0,0,0,0,0,0],"id":19,"left_children":[1,3,5,7,9,11,13,15,17,19,21,23,25,27,29,-1,-1,-1,-1,-1,-1,-1,-1,-1,-1,-1,-1,-1,-1,-1,-1],"loss_changes":[1.835191E1,6.416152E0,6.9311714E0,6.092177E0,4.6249657E0,4.5348253E0,4.1063557E0,2.0857992E0,3.7960045E0,2.9069366E0,2.2321417E0,2.568757E0,1.154512E0,2.9709563E0,3.9776669E0,0E0,0E0,0E0,0E0,0E0,0E0,0E0,0E0,0E0,0E0,0E0,0E0,0E0,0E0,0E0,0E0],"parents":[2147483647,0,0,1,1,2,2,3,3,4,4,5,5,6,6,7,7,8,8,9,9,10,10,11,11,12,12,13,13,14,14],"right_children":[2,4,6,8,10,12,14,16,18,20,22,24,26,28,30,-1,-1,-1,-1,-1,-1,-1,-1,-1,-1,-1,-1,-1,-1,-1,-1],"split_conditions":[8.328952E-3,2.646099E-1,1.4358777E2,1.4023325E2,3.9956215E-1,1.989186E-1,1.5711491E-1,6.5649696E-2,1.2966222E-1,1.1642566E-1,6.3998915E-2,1.1355238E-1,8.657484E-2,4.1056824E-1,-4.9826708E-2,-7.0687366E-4,-2.8953524E-2,3.2866272E-4,-1.578457E-2,-2.891008E-2,2.549722E-3,6.9256194E-2,-1.6444452E-2,-2.12901E-2,-9.565417E-3,2.3016391E-2,-1.0632594E-2,8.652063E-3,-1.4323011E-2,2.4421262E-2,1.0061644E-2],"split_indices":[5,4,23,23,12,1,3,29,8,18,29,8,29,12,6,0,0,0,0,0,0,0,0,0,0,0,0,0,0,0,0],"split_type":[0,0,0,0,0,0,0,0,0,0,0,0,0,0,0,0,0,0,0,0,0,0,0,0,0,0,0,0,0,0,0],"sum_hessian":[4.474E3,2.133E3,2.341E3,1.71E3,4.23E2,3.35E2,2.006E3,2.23E2,1.487E3,2.54E2,1.69E2,2.34E2,1.01E2,5.2E2,1.486E3,4.4E1,1.79E2,1.261E3,2.26E2,2.29E2,2.5E1,3.2E1,1.37E2,6.9E1,1.65E2,6.6E1,3.5E1,3.68E2,1.52E2,6.5E2,8.36E2],"tree_param":{"num_deleted":"0","num_feature":"30","num_nodes":"31","size_leaf_vector":"1"}},{"base_weights":[1.1246019E-3,-3.6202863E-2,7.832986E-2,-1.452241E-1,-1.3687592E-2,1.7567559E-1,3.532336E-2,-7.142846E-2,-2.2047225E-1,4.0049527E-2,-6.480752E-2,-6.009494E-3,2.0049493E-1,6.0889896E-2,-1.092713E-1,-2.1033382E-2,1.1190878E-3,-1.0850552E-2,-2.180679E-2,8.709492E-3,-1.3982747E-3,-8.044914E-3,5.062191E-3,9.194922E-3,1.9037342E-2,6.58512E-3,-1.8977465E-2,-1.52970115E-2,8.794402E-3],"categories":[],"categories_nodes":[],"categories_segments":[],"categories_sizes":[],"default_left":[0,0,0,0,0,0,0,0,0,0,0,0,0,0,0,0,0,0,0,0,0,0,0,0,0,0,0,0,0],"id":20,"left_children":[1,3,5,7,9,11,13,15,17,19,21,-1,23,25,27,-1,-1,-1,-1,-1,-1,-1,-1,-1,-1,-1,-1,-1,-1],"loss_changes":[1.2812824E1,7.3565607E0,6.0662336E0,2.8486748E0,6.8236427E0,2.7623901E0,3.7152693E0,4.225971E0,1.1164789E0,4.780014E0,5.799129E0,0E0,1.2848892E0,5.4140735E0,2.7000005E0,0E0,0E0,0E0,0E0,0E0,0E0,0E0,0E0,0E0,0E0,0E0,0E0,0E0,0E0],"parents":[2147483647,0,0,1,1,2,2,3,3,4,4,5,5,6,6,7,7,8,8,9,9,10,10,12,12,13,13,14,14],"right_children":[2,4,6,8,10,12,14,16,18,20,22,-1,24,26,28,-1,-1,-1,-1,-1,-1,-1,-1,-1,-1,-1,-1,-1,-1],"split_conditions":[9.33537E-3,1.1268198E0,2.8247812E-1,2.8481475E-1,1.1355238E-1,5.685298E-2,1.3394164E-1,1.0864908E0,2.003357E-2,2.9766536E-1,1.1642566E-1,-1.2095266E-2,4.4592956E-1,8.657484E-2,7.9127505E-2,-2.5511464E-2,1.4352105E-3,-1.10931955E-2,-2.8805226E-2,1.4039778E-2,-2.5099409E-3,-1.28563475E-2,8.9920815E-3,9.67345E-3,3.484978E-2,1.3498815E-2,-3.296555E-2,-1.982286E-2,3.0747859E-2],"split_indices":[5,20,9,9,8,14,8,20,18,9,18,0,22,29,29,0,0,0,0,0,0,0,0,0,0,0,0,0,0],"split_type":[0,0,0,0,0,0,0,0,0,0,0,0,0,0,0,0,0,0,0,0,0,0,0,0,0,0,0,0,0],"sum_hessian":[4.446E3,2.997E3,1.449E3,5.13E2,2.484E3,4.44E2,1.005E3,2.59E2,2.54E2,1.211E3,1.273E3,4E1,4.04E2,8.54E2,1.51E2,8E1,1.79E2,9.6E1,1.58E2,5.52E2,6.59E2,9.96E2,2.77E2,1.22E2,2.82E2,7.97E2,5.7E1,1.1E2,4.1E1],"tree_param":{"num_deleted":"0","num_feature":"30","num_nodes":"29","size_leaf_vector":"1"}},{"base_weights":[1.5310543E-3,-4.8814774E-2,6.1689857E-2,-9.2238784E-2,4.054051E-2,1.556372E-1,1.1838832E-3,-3.5632156E-2,-1.534161E-1,-1.4233549E-1,7.754796E-2,1.6708855E-1,-1.5408973E-2,-5.9505366E-2,6.451608E-2,1.4907378E-2,-4.8035514E-3,-1.0800697E-2,-3.389993E-2,-1.144652E-3,-2.2124656E-2,1.0502124E-2,-4.5354496E-4,9.915153E-3,1.927978E-2,-1.3954748E-2,-1.2813509E-3,8.972128E-3,-4.9783145E-3],"categories":[],"categories_nodes":[],"categories_segments":[],"categories_sizes":[],"default_left":[0,0,0,0,0,0,0,0,0,0,0,0,0,0,0,0,0,0,0,0,0,0,0,0,0,0,0,0,0],"id":21,"left_children":[1,3,5,7,9,11,13,15,17,19,21,23,-1,25,27,-1,-1,-1,-1,-1,-1,-1,-1,-1,-1,-1,-1,-1,-1],"loss_changes":[1.3847422E1,9.657733E0,1.1840553E1,5.8005924E0,5.5089693E0,3.2512894E0,4.8698215E0,4.6897354E0,4.042366E0,2.3469338E0,3.0148869E0,2.5177631E0,0E0,3.227846E0,3.7263725E0,0E0,0E0,0E0,0E0,0E0,0E0,0E0,0E0,0E0,0E0,0E0,0E0,0E0,0E0],"parents":[2147483647,0,0,1,1,2,2,3,3,4,4,5,5,6,6,7,7,8,8,9,9,10,10,11,11,13,13,14,14],"right_children":[2,4,6,8,10,12,14,16,18,20,22,24,-1,26,28,-1,-1,-1,-1,-1,-1,-1,-1,-1,-1,-1,-1,-1,-1],"split_conditions":[7.0700926E-1,7.251365E-2,7.837637E-1,1.1931009E-1,5.96942E-2,1.4524636E-1,1.1871543E0,7.6517963E-1,8.798945E-1,8.2300353E-1,4.6966118E-1,8.022221E-1,-6.1224336E-3,6.8426607E-3,8.217758E-1,3.32374E-2,-6.104004E-3,-1.6425246E-2,-4.3121483E-2,-8.042025E-3,-3.32723E-2,1.8651068E-2,-3.279702E-4,1.8859874E-2,4.1912977E-2,-1.6552363E-2,-2.8695953E-3,1.2396109E-2,-6.0573593E-3],"split_indices":[17,19,21,8,14,8,20,21,24,21,22,17,0,5,21,0,0,0,0,0,0,0,0,0,0,0,0,0,0],"split_type":[0,0,0,0,0,0,0,0,0,0,0,0,0,0,0,0,0,0,0,0,0,0,0,0,0,0,0,0,0],"sum_hessian":[4.572E3,2.489E3,2.083E3,1.675E3,8.14E2,8.16E2,1.267E3,8.7E2,8.05E2,1.37E2,6.77E2,7.9E2,2.6E1,6.47E2,6.2E2,8.6E1,7.84E2,7.53E2,5.2E1,7E1,6.7E1,4.12E2,2.65E2,4.97E2,2.93E2,1.78E2,4.69E2,4.51E2,1.69E2],"tree_param":{"num_deleted":"0","num_feature":"30","num_nodes":"29","size_leaf_vector":"1"}},{"base_weights":[6.170065E-3,-6.0439546E-2,5.2142575E-2,8.264434E-3,-1.0603288E-1,-3.35157E-2,8.499474E-2,-3.8596448E-2,1.794869E-1,-1.2269638E-1,1.6666602E-1,1.2343081E-1,-1.0975603E-1,3.3116803E-1,7.463093E-2,-8.281313E-3,5.6693787E-3,2.2677517E-2,-3.205055E-3,-1.20191015E-2,-2.0974908E-4,-1.4837744E-3,2.4483232E-2,1.7675128E-2,-3.8895194E-4,-6.1273817E-3,-2.5712444E-2,1.8566003E-2,3.5612E-2,-4.7023003E-3,7.3879804E-3],"categories":[],"categories_nodes":[],"categories_segments":[],"categories_sizes":[],"default_left":[0,0,0,0,0,0,0,0,0,0,0,0,0,0,0,0,0,0,0,0,0,0,0,0,0,0,0,0,0,0,0],"id":22,"left_children":[1,3,5,7,9,11,13,15,17,19,21,23,25,27,29,-1,-1,-1,-1,-1,-1,-1,-1,-1,-1,-1,-1,-1,-1,-1,-1],"loss_changes":[1.3648275E1,5.7010484E0,7.4206767E0,5.825165E0,4.9712687E0,8.746896E0,4.862751E0,4.0362134E0,3.5449123E0,3.3802109E0,1.620356E0,2.9788527E0,3.4576945E0,8.674946E-1,4.284683E0,0E0,0E0,0E0,0E0,0E0,0E0,0E0,0E0,0E0,0E0,0E0,0E0,0E0,0E0,0E0,0E0],"parents":[2147483647,0,0,1,1,2,2,3,3,4,4,5,5,6,6,7,7,8,8,9,9,10,10,11,11,12,12,13,13,14,14],"right_children":[2,4,6,8,10,12,14,16,18,20,22,24,26,28,30,-1,-1,-1,-1,-1,-1,-1,-1,-1,-1,-1,-1,-1,-1,-1,-1],"split_conditions":[2.9346108E-1,2.9276198E-1,1.1494749E0,1.9700506E-1,1.292348E0,2.8031647E-1,7.3951286E-1,1.163323E0,4.189278E-1,4.733266E-1,3.626001E-1,2.6173174E-1,3.1042784E-1,3.322969E-1,1.8329698E-1,-1.08322725E-2,5.3864513E-3,3.707356E-2,-1.2687304E-2,-1.8559013E-2,-4.8571773E-4,-3.6539934E-3,4.347365E-2,1.4449812E-2,-2.2718494E-3,-5.724661E-3,-2.6625099E-2,2.6254108E-2,6.817278E-2,-4.523407E-3,1.39026E-2],"split_indices":[26,9,20,1,20,9,21,20,27,12,18,10,9,27,1,0,0,0,0,0,0,0,0,0,0,0,0,0,0,0,0],"split_type":[0,0,0,0,0,0,0,0,0,0,0,0,0,0,0,0,0,0,0,0,0,0,0,0,0,0,0,0,0,0,0],"sum_hessian":[4.457E3,1.82E3,2.637E3,7.26E2,1.094E3,7.31E2,1.906E3,5.7E2,1.56E2,1.031E3,6.3E1,2.39E2,4.92E2,7.7E1,1.829E3,3.58E2,2.12E2,1.06E2,5E1,8.4E2,1.91E2,2.7E1,3.6E1,1.36E2,1.03E2,4.25E2,6.7E1,4.1E1,3.6E1,2.13E2,1.616E3],"tree_param":{"num_deleted":"0","num_feature":"30","num_nodes":"31","size_leaf_vector":"1"}},{"base_weights":[6.9960603E-3,-8.114672E-2,3.2581095E-2,-2.339684E-2,-1.5486717E-1,5.060995E-2,-7.421869E-2,6.444432E-2,-7.954537E-2,-2.3357646E-1,-3.370773E-2,6.926069E-2,-5.291571E-2,9.80389E-2,-1.1707309E-1,1.1710901E-2,-3.7954855E-3,-8.367724E-3,1.1128719E-2,-2.8934812E-2,-1.5073448E-2,1.5135092E-2,-8.735671E-3,1.2555386E-2,3.2506443E-3,-1.0693144E-2,5.7233707E-3,2.2535685E-2,1.144652E-3,3.3386126E-3,-1.2090215E-2],"categories":[],"categories_nodes":[],"categories_segments":[],"categories_sizes":[],"default_left":[0,0,0,0,0,0,0,0,0,0,0,0,0,0,0,0,0,0,0,0,0,0,0,0,0,0,0,0,0,0,0],"id":23,"left_children":[1,3,5,7,9,11,13,15,17,19,21,23,25,27,29,-1,-1,-1,-1,-1,-1,-1,-1,-1,-1,-1,-1,-1,-1,-1,-1],"loss_changes":[1.031499E1,4.380806E0,6.8258195E0,2.8458533E0,4.310437E0,5.8562083E0,3.7795842E0,2.055629E0,1.9133646E0,1.5884714E0,2.9841192E0,6.447158E0,4.6365747E0,1.5651269E0,2.2007499E0,0E0,0E0,0E0,0E0,0E0,0E0,0E0,0E0,0E0,0E0,0E0,0E0,0E0,0E0,0E0,0E0],"parents":[2147483647,0,0,1,1,2,2,3,3,4,4,5,5,6,6,7,7,8,8,9,9,10,10,11,11,12,12,13,13,14,14],"right_children":[2,4,6,8,10,12,14,16,18,20,22,24,26,28,30,-1,-1,-1,-1,-1,-1,-1,-1,-1,-1,-1,-1,-1,-1,-1,-1],"split_conditions":[1.8265836E-1,8.0155474E-1,4.167933E-1,2.476683E-1,5.2724566E-2,2.6985797E-1,2.3886466E-1,3.4567606E-1,9.101147E-1,1.3862769E2,2.5562614E-1,7.7359533E-1,2.026259E-1,-2.558168E-1,3.5285184E-1,7.1452293E-3,-5.2624005E-3,-7.7710566E-3,1.699927E-2,-4.0298086E-2,-1.8823545E-2,1.4028598E-2,-9.380142E-3,2.961991E-2,5.4783933E-3,-2.1494268E-2,1.3795784E-2,2.4985893E-2,9.28673E-4,2.9348047E-3,-1.8992363E-2],"split_indices":[1,21,27,4,25,4,26,12,15,23,26,21,1,6,12,0,0,0,0,0,0,0,0,0,0,0,0,0,0,0,0],"split_type":[0,0,0,0,0,0,0,0,0,0,0,0,0,0,0,0,0,0,0,0,0,0,0,0,0,0,0,0,0,0,0],"sum_hessian":[4.574E3,1.029E3,3.545E3,5.77E2,4.52E2,3.033E3,5.12E2,2.25E2,3.52E2,2.74E2,1.78E2,2.57E3,4.63E2,1.02E2,4.1E2,1.3E2,9.5E1,3.16E2,3.6E1,7.2E1,2.02E2,4.5E1,1.33E2,6.35E2,1.935E3,2.81E2,1.82E2,3.2E1,7E1,7.2E1,3.38E2],"tree_param":{"num_deleted":"0","num_feature":"30","num_nodes":"31","size_leaf_vector":"1"}},{"base_weights":[2.2172509E-4,1.11374356E-1,-1.7926225E-2,1.558044E-1,-4.2253345E-2,-7.6616E-4,-1.09120466E-1,1.9499989E-1,-1.6483275E-2,-1.4077634E-1,1.7463561E-2,-7.321223E-2,2.6028538E-2,-1.7519172E-1,6.7263646E-3,3.4837548E-3,1.7202476E-2,-1.06836E-2,1.6800782E-2,-2.4720047E-2,-0E0,-7.904454E-3,4.830358E-3,3.7759386E-3,-9.08792E-3,-1.7762853E-2,-0E0,5.5177393E-3,-1.4308399E-2],"categories":[],"categories_nodes":[],"categories_segments":[],"categories_sizes":[],"default_left":[0,0,0,0,0,0,0,0,0,0,0,0,0,0,0,0,0,0,0,0,0,0,0,0,0,0,0,0,0],"id":24,"left_children":[1,3,5,7,9,11,13,15,17,19,-1,21,23,25,27,-1,-1,-1,-1,-1,-1,-1,-1,-1,-1,-1,-1,-1,-1],"loss_changes":[9.097541E0,4.3206635E0,6.067113E0,3.3156786E0,3.6402843E0,6.33404E0,4.699649E0,1.1933365E0,2.4048238E0,2.432126E0,0E0,2.9915676E0,7.0071917E0,3.1846313E0,2.5675266E0,0E0,0E0,0E0,0E0,0E0,0E0,0E0,0E0,0E0,0E0,0E0,0E0,0E0,0E0],"parents":[2147483647,0,0,1,1,2,2,3,3,4,4,5,5,6,6,7,7,8,8,9,9,11,11,12,12,13,13,14,14],"right_children":[2,4,6,8,10,12,14,16,18,20,-1,22,24,26,28,-1,-1,-1,-1,-1,-1,-1,-1,-1,-1,-1,-1,-1,-1],"split_conditions":[7.6517963E-1,2.7318805E-1,2.664911E-1,3.7618968E-1,3.8747668E-1,1.4358777E2,6.887269E-2,4.3225887E-1,2.4391073E-1,1.513142E2,3.3426218E-2,4.633377E-1,4.189278E-1,3.8680917E-1,2.8285834E-1,1.987527E-3,3.0002486E-2,-1.5354692E-2,3.242829E-2,-3.2610495E-2,-9.818593E-4,-8.463709E-3,6.119743E-3,5.2066618E-3,-1.3876739E-2,-2.5432408E-2,-4.546237E-3,1.1343862E-2,-3.362601E-2],"split_indices":[21,4,4,27,12,23,25,22,16,23,0,22,27,2,4,0,0,0,0,0,0,0,0,0,0,0,0,0,0],"split_type":[0,0,0,0,0,0,0,0,0,0,0,0,0,0,0,0,0,0,0,0,0,0,0,0,0,0,0,0,0],"sum_hessian":[4.51E3,6.33E2,3.877E3,4.91E2,1.42E2,3.263E3,6.14E2,4E2,9.1E1,1.03E2,3.9E1,8.81E2,2.382E3,3.91E2,2.23E2,4.6E1,3.54E2,6E1,3.1E1,4.7E1,5.6E1,7.4E2,1.41E2,2.069E3,3.13E2,3.09E2,8.2E1,1.67E2,5.6E1],"tree_param":{"num_deleted":"0","num_feature":"30","num_nodes":"29","size_leaf_vector":"1"}},{"base_weights":[-3.4513427E-3,5.6149717E-2,-4.597481E-2,8.71871E-3,1.696914E-1,-1.9477893E-1,-3.0354122E-2,2.734692E-2,-2.3404202E-1,1.1363395E-2,1.9978392E-1,-3.7300456E-2,-1.5909073E-1,-1.2413098E-2,-1.3128482E-1,3.7095853E-4,1.5749149E-2,-6.2320763E-3,-3.0252062E-2,-1.6496703E-2,1.1870665E-2,-8.012651E-3,1.7672425E-2,-3.6421346E-3,-2.185288E-2,-6.6692815E-3,3.0243138E-3,-1.8151287E-2,6.0272594E-3],"categories":[],"categories_nodes":[],"categories_segments":[],"categories_sizes":[],"default_left":[0,0,0,0,0,0,0,0,0,0,0,0,0,0,0,0,0,0,0,0,0,0,0,0,0,0,0,0,0],"id":25,"left_children":[1,3,5,7,9,11,13,15,17,19,21,-1,23,25,27,-1,-1,-1,-1,-1,-1,-1,-1,-1,-1,-1,-1,-1,-1],"loss_changes":[1.1382187E1,1.0070687E1,6.0923076E0,5.9647756E0,2.6252308E0,2.4058352E0,4.2952147E0,4.7087383E0,2.1079597E0,2.6149762E0,2.882904E0,0E0,2.8408966E0,7.153999E0,7.0414267E0,0E0,0E0,0E0,0E0,0E0,0E0,0E0,0E0,0E0,0E0,0E0,0E0,0E0,0E0],"parents":[2147483647,0,0,1,1,2,2,3,3,4,4,5,5,6,6,7,7,8,8,9,9,10,10,12,12,13,13,14,14],"right_children":[2,4,6,8,10,12,14,16,18,20,22,-1,24,26,28,-1,-1,-1,-1,-1,-1,-1,-1,-1,-1,-1,-1,-1,-1],"split_conditions":[2.9061466E-1,1.9700506E-1,1.1268198E0,5.31652E-1,5.881269E-2,3.4314677E-1,3.2759115E-1,1.513142E2,6.288995E-2,3.4680787E-1,1.5070356E-1,-2.5058206E-2,3.0183226E-1,3.7995726E-1,5.0044334E-1,8.1987533E-4,3.4906242E-2,-1.1277278E-2,-2.2084333E-2,-2.871796E-2,2.6752288E-2,-2.6847739E-2,3.5493124E-2,-5.1366384E-3,-3.3317965E-2,-1.3068773E-2,5.854983E-3,-2.981148E-2,8.850817E-3],"split_indices":[9,1,20,28,14,12,9,23,14,12,3,0,9,12,12,0,0,0,0,0,0,0,0,0,0,0,0,0,0],"split_type":[0,0,0,0,0,0,0,0,0,0,0,0,0,0,0,0,0,0,0,0,0,0,0,0,0,0,0,0,0],"sum_hessian":[4.491E3,1.87E3,2.621E3,1.319E3,5.51E2,2.49E2,2.372E3,1.225E3,9.4E1,8.8E1,4.63E2,2.9E1,2.2E2,2.014E3,3.58E2,1.08E3,1.45E2,4.5E1,4.9E1,3.4E1,5.4E1,3E1,4.33E2,1.1E2,1.1E2,8.35E2,1.179E3,2.45E2,1.13E2],"tree_param":{"num_deleted":"0","num_feature":"30","num_nodes":"29","size_leaf_vector":"1"}},{"base_weights":[-2.6845592E-3,5.7487365E-2,-4.261257E-2,-2.1806818E-2,1.0210339E-1,-8.951047E-2,1.073984E-2,-1.0818694E-1,9.554096E-3,-7.303338E-2,1.1692012E-1,-9.685487E-2,1.9385524E-2,5.8355402E-2,-6.063613E-2,-1.6976075E-2,-4.292519E-3,3.347634E-3,-8.813984E-3,1.2519803E-2,-1.6165985E-2,4.6077105E-3,1.389964E-2,-6.557015E-3,-2.03602E-2,-3.0818142E-3,8.45525E-3,-3.4389386E-3,-2.2738729E-2],"categories":[],"categories_nodes":[],"categories_segments":[],"categories_sizes":[],"default_left":[0,0,0,0,0,0,0,0,0,0,0,0,0,0,0,0,0,0,0,0,0,0,0,0,0,0,0,0,0],"id":26,"left_children":[1,3,5,7,9,11,13,15,17,19,21,23,-1,25,27,-1,-1,-1,-1,-1,-1,-1,-1,-1,-1,-1,-1,-1,-1],"loss_changes":[1.0739377E1,6.3078833E0,6.7231884E0,1.7391546E0,2.960845E0,3.4809933E0,4.2720494E0,9.68261E-1,1.8145732E0,2.6266875E0,3.5345955E0,3.3046818E0,0E0,3.443204E0,1.9886746E0,0E0,0E0,0E0,0E0,0E0,0E0,0E0,0E0,0E0,0E0,0E0,0E0,0E0,0E0],"parents":[2147483647,0,0,1,1,2,2,3,3,4,4,5,5,6,6,7,7,8,8,9,9,10,10,11,11,13,13,14,14],"right_children":[2,4,6,8,10,12,14,16,18,20,22,24,-1,26,28,-1,-1,-1,-1,-1,-1,-1,-1,-1,-1,-1,-1,-1,-1],"split_conditions":[6.589201E-2,7.9188615E-1,1.9203785E-1,3.2940555E-1,3.4733975E-1,4.7173855E-1,2.5203362E-1,2.8302118E-2,8.0260277E-1,3.146473E-1,1.93942E-1,2.611901E-1,2.7901242E-2,1.569974E-1,8.546789E-2,-1.4578017E-2,-5.0396337E-3,6.0069826E-3,-9.3989605E-3,3.874841E-2,-1.4274787E-2,6.4821527E-3,2.9306196E-2,-9.518768E-3,-2.5516076E-2,-4.5683524E-3,1.3100412E-2,-7.46474E-3,-5.030002E-2],"split_indices":[29,24,1,2,28,11,10,7,21,26,1,10,0,3,29,0,0,0,0,0,0,0,0,0,0,0,0,0,0],"split_type":[0,0,0,0,0,0,0,0,0,0,0,0,0,0,0,0,0,0,0,0,0,0,0,0,0,0,0,0,0],"sum_hessian":[4.47E3,1.783E3,2.687E3,6.42E2,1.141E3,1.43E3,1.257E3,1.71E2,4.71E2,8.9E1,1.052E3,1.399E3,3.1E1,7.54E2,5.03E2,5.9E1,1.12E2,3.71E2,1E2,3.2E1,5.7E1,5.13E2,5.39E2,1.277E3,1.22E2,2.47E2,5.07E2,4.66E2,3.7E1],"tree_param":{"num_deleted":"0","num_feature":"30","num_nodes":"29","size_leaf_vector":"1"}},{"base_weights":[3.980535E-3,-2.903738E-2,4.531871E-2,-3.3145834E-2,3.0448183E-2,-1.0220976E-1,5.9934303E-2,2.2860466E-2,-6.234717E-2,-1.5986367E-1,1.1783347E-2,1.1954882E-1,2.5817536E-2,8.40496E-3,-1.4838371E-3,4.5269472E-4,-9.152477E-3,8.175917E-4,-1.9622989E-2,6.947363E-4,1.2703114E-2,4.15074E-3,-4.6789628E-3],"categories":[],"categories_nodes":[],"categories_segments":[],"categories_sizes":[],"default_left":[0,0,0,0,0,0,0,0,0,0,0,0,0,0,0,0,0,0,0,0,0,0,0],"id":27,"left_children":[1,3,5,7,-1,9,11,13,15,17,-1,19,21,-1,-1,-1,-1,-1,-1,-1,-1,-1,-1],"loss_changes":[6.1720805E0,4.2247686E0,4.329682E0,4.0706587E0,0E0,2.6012E0,3.7158499E0,2.8955128E0,5.770941E0,2.1258419E0,0E0,2.8747206E0,2.5426588E0,0E0,0E0,0E0,0E0,0E0,0E0,0E0,0E0,0E0,0E0],"parents":[2147483647,0,0,1,1,2,2,3,3,5,5,6,6,7,7,8,8,9,9,11,11,12,12],"right_children":[2,4,6,8,-1,10,12,14,16,18,-1,20,22,-1,-1,-1,-1,-1,-1,-1,-1,-1,-1],"split_conditions":[1.479896E2,1.3069841E0,1.4786804E-1,2.4755596E-1,2.6707552E-2,1.2612721E-1,6.150977E-2,4.062869E-1,6.457986E-2,6.742185E-2,1.3432791E-2,5.96942E-2,-2.5502587E-2,1.0095764E-2,-1.9786675E-3,4.9358926E-4,-1.1435442E-2,2.743323E-3,-2.5800928E-2,4.606381E-3,2.9732078E-2,8.604212E-3,-6.184248E-3],"split_indices":[23,20,3,10,0,14,29,27,14,14,0,14,6,0,0,0,0,0,0,0,0,0,0],"split_type":[0,0,0,0,0,0,0,0,0,0,0,0,0,0,0,0,0,0,0,0,0,0,0],"sum_hessian":[4.522E3,2.514E3,2.008E3,2.489E3,2.5E1,1.81E2,1.827E3,8.53E2,1.636E3,1.47E2,3.4E1,6.65E2,1.162E3,2.86E2,5.67E2,7.08E2,9.28E2,4.9E1,9.8E1,1.73E2,4.92E2,8.88E2,2.74E2],"tree_param":{"num_deleted":"0","num_feature":"30","num_nodes":"23","size_leaf_vector":"1"}},{"base_weights":[-0E0,-3.7901983E-2,5.1083576E-2,-6.930683E-3,-1.4358102E-1,1.4176564E-1,1.1489977E-2,5.1677816E-2,-4.117645E-2,-1.09170236E-1,-2.6119363E-1,1.2177115E-1,2.9834546E-2,-1.2295063E-1,3.259003E-2,-1.8403749E-3,7.804609E-3,5.3704454E-4,-8.709492E-3,-2.8280098E-2,-7.1812207E-3,-1.3354516E-2,-2.9724585E-2,1.7681718E-2,5.8495123E-3,7.069989E-3,-1.3713052E-2,-4.9783215E-3,5.7095564E-3],"categories":[],"categories_nodes":[],"categories_segments":[],"categories_sizes":[],"default_left":[0,0,0,0,0,0,0,0,0,0,0,0,0,0,0,0,0,0,0,0,0,0,0,0,0,0,0,0,0],"id":28,"left_children":[1,3,5,7,9,11,13,15,17,19,21,23,-1,25,27,-1,-1,-1,-1,-1,-1,-1,-1,-1,-1,-1,-1,-1,-1],"loss_changes":[8.809568E0,8.549118E0,6.9582496E0,4.0543284E0,2.3958979E0,2.7153902E0,3.826713E0,2.5428095E0,4.121743E0,2.1824107E0,1.3904428E0,2.6141415E0,0E0,1.8623979E0,4.270413E0,0E0,0E0,0E0,0E0,0E0,0E0,0E0,0E0,0E0,0E0,0E0,0E0,0E0,0E0],"parents":[2147483647,0,0,1,1,2,2,3,3,4,4,5,5,6,6,7,7,8,8,9,9,10,10,11,11,13,13,14,14],"right_children":[2,4,6,8,10,12,14,16,18,20,22,24,-1,26,28,-1,-1,-1,-1,-1,-1,-1,-1,-1,-1,-1,-1,-1,-1],"split_conditions":[7.1412593E-1,2.640659E-1,3.1794213E-2,7.838138E-1,2.8285834E-1,4.963388E-1,2.3026572E-1,4.4198593E-1,2.4701102E-1,2.6494983E-1,1.3544197E0,2.5802413E-1,3.873048E-2,1.4501281E-2,7.0137023E-3,-2.1582055E-3,1.3718763E-2,1.5440559E-3,-1.3645833E-2,-2.2689495E-2,-1.0125885E-2,-1.796952E-2,-3.588755E-2,2.5914863E-2,1.0454255E-2,8.875757E-4,-1.4200043E-2,-6.923711E-3,9.335192E-3],"split_indices":[17,4,13,15,4,22,4,22,4,4,0,10,0,7,5,0,0,0,0,0,0,0,0,0,0,0,0,0,0],"split_type":[0,0,0,0,0,0,0,0,0,0,0,0,0,0,0,0,0,0,0,0,0,0,0,0,0,0,0,0,0],"sum_hessian":[4.55E3,2.612E3,1.938E3,2.02E3,5.92E2,5.89E2,1.349E3,7.45E2,1.275E3,4.58E2,1.34E2,5.42E2,4.7E1,1.83E2,1.166E3,2.83E2,4.62E2,7.46E2,5.29E2,3.4E1,4.24E2,7.2E1,6.2E1,1.79E2,3.63E2,3.4E1,1.49E2,3.38E2,8.28E2],"tree_param":{"num_deleted":"0","num_feature":"30","num_nodes":"29","size_leaf_vector":"1"}},{"base_weights":[-3.4590447E-3,-2.7380887E-1,1.7057039E-3,-5.723301E-3,-3.749988E-1,-2.4923695E-2,5.593921E-2,-2.5039656E-2,-3.6724783E-2,-1.4436612E-2,-2.981646E-1,-2.0031672E-2,6.1095487E-2,-1.8410003E-3,1.7987737E-2,-6.677179E-3,-2.8751526E-2,5.05001E-4,7.0998915E-3],"categories":[],"categories_nodes":[],"categories_segments":[],"categories_sizes":[],"default_left":[0,0,0,0,0,0,0,0,0,0,0,0,0,0,0,0,0,0,0],"id":29,"left_children":[1,3,5,-1,7,9,11,-1,-1,13,15,-1,17,-1,-1,-1,-1,-1,-1],"loss_changes":[6.256776E0,1.720223E0,6.350173E0,0E0,2.916298E-1,8.450353E0,2.284214E0,0E0,0E0,5.7943416E0,1.4204063E0,0E0,2.1466346E0,0E0,0E0,0E0,0E0,0E0,0E0],"parents":[2147483647,0,0,1,1,2,2,4,4,5,5,6,6,9,9,10,10,12,12],"right_children":[2,4,6,-1,8,10,12,-1,-1,14,16,-1,18,-1,-1,-1,-1,-1,-1],"split_conditions":[4.4654727E-2,1.5753435E-1,3.1020167E-1,-1.8345332E-2,2.4245073E-1,2.8196815E-1,1.4208312E-1,-4.0471617E-2,-4.3591987E-2,1.3118982E0,2.664721E-1,-3.0728932E-2,8.897701E-3,-2.9257727E-3,4.1152123E-2,-3.019527E-2,-3.2535188E-2,6.6017965E-4,1.2819513E-2],"split_indices":[14,3,26,0,16,4,3,0,0,20,26,0,5,0,0,0,0,0,0],"split_type":[0,0,0,0,0,0,0,0,0,0,0,0,0,0,0,0,0,0,0],"sum_hessian":[4.481E3,8.4E1,4.397E3,2.8E1,5.6E1,2.949E3,1.448E3,3.2E1,2.4E1,2.84E3,1.09E2,2.4E1,1.424E3,2.742E3,9.8E1,2.4E1,8.5E1,4.76E2,9.48E2],"tree_param":{"num_deleted":"0","num_feature":"30","num_nodes":"19","size_leaf_vector":"1"}},{"base_weights":[-8.791165E-4,2.2990204E-2,-6.912635E-2,-5.861127E-3,7.849087E-2,-1.9135784E-1,-3.7393138E-2,4.694826E-3,-2.6136303E-1,1.1708389E-1,2.3206703E-2,-1.5326613E-1,-2.9137107E-2,-1.1860148E-2,-1.8888856E-1,2.2465608E-3,-7.284301E-3,-2.7411906E-2,-9.04655E-3,1.2703114E-2,6.4272404E-4,-1.0386846E-2,4.3835533E-3,-2.5640663E-2,-7.7976133E-3,-7.678862E-3,1.9281956E-3,-1.0117063E-2,-2.893474E-2],"categories":[],"categories_nodes":[],"categories_segments":[],"categories_sizes":[],"default_left":[0,0,0,0,0,0,0,0,0,0,0,0,0,0,0,0,0,0,0,0,0,0,0,0,0,0,0,0,0],"id":30,"left_children":[1,3,5,7,9,11,13,15,17,19,21,23,-1,25,27,-1,-1,-1,-1,-1,-1,-1,-1,-1,-1,-1,-1,-1,-1],"loss_changes":[7.4120197E0,5.3978767E0,4.5730977E0,5.9820976E0,2.4600182E0,1.5946293E0,3.6205668E0,4.753386E0,1.0548348E0,3.0697088E0,2.2820365E0,1.8564291E0,0E0,2.4163558E0,1.4560347E0,0E0,0E0,0E0,0E0,0E0,0E0,0E0,0E0,0E0,0E0,0E0,0E0,0E0,0E0],"parents":[2147483647,0,0,1,1,2,2,3,3,4,4,5,5,6,6,7,7,8,8,9,9,10,10,11,11,13,13,14,14],"right_children":[2,4,6,8,10,12,14,16,18,20,22,24,-1,26,28,-1,-1,-1,-1,-1,-1,-1,-1,-1,-1,-1,-1,-1,-1],"split_conditions":[8.145052E-1,1.4982661E2,4.3812537E-1,2.8196815E-1,1.1486765E-1,8.409041E-1,4.4825864E0,3.8274355E0,1.1957582E0,7.9400384E-1,7.924564E-3,2.4490919E-2,-3.181668E-2,1.006106E-1,2.5922796E-1,2.4290958E-3,-9.997066E-3,-2.2403672E-2,-2.0636605E-2,2.831375E-2,2.9963728E-3,-1.6924346E-2,6.5358058E-3,-2.6278464E-2,-9.34169E-3,-1.4519658E-2,3.690478E-3,-1.26023535E-2,-4.4392407E-2],"split_indices":[21,23,22,4,8,21,0,0,20,21,5,18,0,8,4,0,0,0,0,0,0,0,0,0,0,0,0,0,0],"split_type":[0,0,0,0,0,0,0,0,0,0,0,0,0,0,0,0,0,0,0,0,0,0,0,0,0,0,0,0,0],"sum_hessian":[4.55E3,3.371E3,1.179E3,2.218E3,1.153E3,2.43E2,9.36E2,2.13E3,8.8E1,6.79E2,4.74E2,1.99E2,4.4E1,8.01E2,1.35E2,1.712E3,4.18E2,5.7E1,3.1E1,4.92E2,1.87E2,8.1E1,3.93E2,5E1,1.49E2,2.4E2,5.61E2,9.9E1,3.6E1],"tree_param":{"num_deleted":"0","num_feature":"30","num_nodes":"29","size_leaf_vector":"1"}},{"base_weights":[3.5762137E-3,-9.838705E-2,1.9979237E-2,1.5135092E-2,-1.208695E-1,-1.3682179E-2,5.957085E-2,-3.2456034E-1,-9.845553E-2,3.9755333E-2,-1.0387093E-1,1.2952238E-1,1.4814795E-2,-1.4308338E-2,-3.7300456E-2,-4.807637E-3,-2.1970361E-2,2.4399124E-4,8.144358E-3,-1.03522185E-2,7.1224053E-3,1.7517008E-2,6.793402E-3,2.2390864E-3,-1.2327248E-2],"categories":[],"categories_nodes":[],"categories_segments":[],"categories_sizes":[],"default_left":[0,0,0,0,0,0,0,0,0,0,0,0,0,0,0,0,0,0,0,0,0,0,0,0,0],"id":31,"left_children":[1,3,5,-1,7,9,11,13,15,17,19,21,23,-1,-1,-1,-1,-1,-1,-1,-1,-1,-1,-1,-1],"loss_changes":[7.482789E0,4.004364E0,5.1362643E0,0E0,2.625163E0,1.0038942E1,5.5445642E0,1.1729231E0,3.500681E0,2.971645E0,3.783433E0,2.7542953E0,2.3915422E0,0E0,0E0,0E0,0E0,0E0,0E0,0E0,0E0,0E0,0E0,0E0,0E0],"parents":[2147483647,0,0,1,1,2,2,4,4,5,5,6,6,7,7,8,8,9,9,10,10,11,11,12,12],"right_children":[2,4,6,-1,8,10,12,14,16,18,20,22,24,-1,-1,-1,-1,-1,-1,-1,-1,-1,-1,-1,-1],"split_conditions":[1.7932972E-1,5.660236E-2,7.1103936E-1,1.0263794E-2,1.3769656E2,2.5642797E-1,7.829124E-1,8.185976E-1,2.6380658E-1,1.9828402E-1,2.0915085E-1,2.1539519E-2,4.97836E-1,-1.7892146E-2,-3.7601184E-2,-4.9953572E-3,-2.2095984E-2,3.1173907E-4,1.55160045E-2,-1.5337751E-2,4.107808E-3,2.99431E-2,1.1123838E-2,3.101574E-3,-2.262926E-2],"split_indices":[1,29,17,0,23,4,21,21,4,1,1,13,28,0,0,0,0,0,0,0,0,0,0,0,0],"split_type":[0,0,0,0,0,0,0,0,0,0,0,0,0,0,0,0,0,0,0,0,0,0,0,0,0],"sum_hessian":[4.474E3,6.2E2,3.854E3,4.5E1,5.75E2,2.083E3,1.771E3,5.7E1,5.18E2,1.308E3,7.75E2,6.91E2,1.08E3,2.8E1,2.9E1,4.25E2,9.3E1,8.21E2,4.87E2,6.85E2,9E1,2.31E2,4.6E2,1.002E3,7.8E1],"tree_param":{"num_deleted":"0","num_feature":"30","num_nodes":"25","size_leaf_vector":"1"}},{"base_weights":[3.3699846E-4,-3.0769223E-2,6.399725E-2,-6.3235844E-3,-1.11190766E-1,1.8766393E-1,2.037035E-2,-2.571421E-1,1.5744399E-3,2.238789E-2,-1.4298394E-1,2.5280878E-1,3.5087507E-2,-9.607831E-2,5.6363605E-2,-1.14466585E-2,-2.6709005E-2,1.5278516E-3,-7.7735432E-3,1.01365615E-2,-1.1783377E-2,-1.523832E-2,-2.4134638E-3,2.3212845E-2,-0E0,1.5739242E-2,-9.670497E-3,-1.335454E-2,-3.609194E-4,-1.21932505E-2,6.041346E-3],"categories":[],"categories_nodes":[],"categories_segments":[],"categories_sizes":[],"default_left":[0,0,0,0,0,0,0,0,0,0,0,0,0,0,0,0,0,0,0,0,0,0,0,0,0,0,0,0,0,0,0],"id":32,"left_children":[1,3,5,7,9,11,13,15,17,19,21,23,25,27,29,-1,-1,-1,-1,-1,-1,-1,-1,-1,-1,-1,-1,-1,-1,-1,-1],"loss_changes":[8.814003E0,5.878207E0,7.882373E0,4.5423713E0,2.960085E0,3.786972E0,4.5266757E0,6.095071E-1,3.8339093E0,2.3640754E0,2.9986973E0,2.4901104E0,2.8651733E0,1.648325E0,3.2745261E0,0E0,0E0,0E0,0E0,0E0,0E0,0E0,0E0,0E0,0E0,0E0,0E0,0E0,0E0,0E0,0E0],"parents":[2147483647,0,0,1,1,2,2,3,3,4,4,5,5,6,6,7,7,8,8,9,9,10,10,11,11,12,12,13,13,14,14],"right_children":[2,4,6,8,10,12,14,16,18,20,22,24,26,28,30,-1,-1,-1,-1,-1,-1,-1,-1,-1,-1,-1,-1,-1,-1,-1,-1],"split_conditions":[7.377655E-1,2.6337534E-1,2.4704888E-1,7.396495E-1,7.2021717E-1,1.18266515E-1,9.613445E-2,2.8891794E-2,8.904613E-1,1.718172E-1,5.370855E-2,4.2494398E-1,8.0042684E-1,8.368275E-1,2.3175111E-1,-2.753697E-2,-2.8745612E-2,2.1053487E-3,-1.1445995E-2,1.0931629E-2,-3.2231122E-2,-1.7682757E-2,-3.2438834E-3,3.578533E-2,-1.3814475E-6,1.9664373E-2,-1.7958907E-2,-1.1850546E-2,-2.1455921E-3,-1.641504E-2,8.908701E-3],"split_indices":[17,4,16,24,15,8,8,0,15,3,19,12,24,24,4,0,0,0,0,0,0,0,0,0,0,0,0,0,0,0,0],"split_type":[0,0,0,0,0,0,0,0,0,0,0,0,0,0,0,0,0,0,0,0,0,0,0,0,0,0,0,0,0,0,0],"sum_hessian":[4.451E3,2.99E3,1.461E3,2.293E3,6.97E2,3.81E2,1.08E3,7E1,2.223E3,1.34E2,5.63E2,2.67E2,1.14E2,2.55E2,8.25E2,2.8E1,4.2E1,1.888E3,3.35E2,8.3E1,5.1E1,3.97E2,1.66E2,2.33E2,3.4E1,5.6E1,5.8E1,1.44E2,1.11E2,6.9E1,7.56E2],"tree_param":{"num_deleted":"0","num_feature":"30","num_nodes":"31","size_leaf_vector":"1"}},{"base_weights":[5.521197E-3,2.532679E-2,-7.9439215E-2,-1.0416657E-1,3.8369298E-2,-1.395563E-1,2.3809452E-2,-2.9379858E-2,-7.843128E-2,1.3492057E-1,2.1186432E-2,-1.8280861E-1,-0E0,6.439383E-2,-1.8627365E-1,1.4838271E-3,-1.2417382E-2,-4.451491E-3,1.3354554E-2,4.0063676E-3,-4.92586E-3,-1.1661179E-2,-3.0351195E-2,7.380119E-3,-1.078632E-2,1.081718E-2,-1.2519852E-2,-3.0817457E-3,-2.7243104E-2],"categories":[],"categories_nodes":[],"categories_segments":[],"categories_sizes":[],"default_left":[0,0,0,0,0,0,0,0,0,0,0,0,0,0,0,0,0,0,0,0,0,0,0,0,0,0,0,0,0],"id":33,"left_children":[1,3,5,7,9,11,13,-1,15,17,19,21,23,25,27,-1,-1,-1,-1,-1,-1,-1,-1,-1,-1,-1,-1,-1,-1],"loss_changes":[7.6192265E0,6.2017064E0,5.313205E0,2.2698228E0,5.5345116E0,3.2655478E0,2.6857195E0,0E0,2.2706628E0,3.047614E0,6.7452025E0,3.0170317E0,1.5870321E0,4.112789E0,1.1588354E0,0E0,0E0,0E0,0E0,0E0,0E0,0E0,0E0,0E0,0E0,0E0,0E0,0E0,0E0],"parents":[2147483647,0,0,1,1,2,2,3,3,4,4,5,5,6,6,8,8,9,9,10,10,11,11,12,12,13,13,14,14],"right_children":[2,4,6,8,10,12,14,-1,16,18,20,22,24,26,28,-1,-1,-1,-1,-1,-1,-1,-1,-1,-1,-1,-1,-1,-1],"split_conditions":[2.6620173E-1,1.4037051E2,1.9912669E-1,7.166037E-1,5.7725593E-2,4.0856597E-1,4.6137694E-1,-3.575979E-2,3.9439566E-2,7.60487E-1,2.5972927E-1,4.0805423E-1,4.3141794E-1,8.7684155E-1,7.60487E-1,1.3813854E-3,-1.6837832E-2,-3.6497354E-3,1.9801708E-2,6.012508E-3,-1.1519136E-2,-1.393688E-2,-2.830612E-2,1.6334075E-2,-8.223173E-3,1.8745795E-2,-1.9118393E-2,-1.9699275E-3,-4.440613E-2],"split_indices":[4,23,1,24,29,12,28,0,13,24,10,27,28,24,24,0,0,0,0,0,0,0,0,0,0,0,0,0,0],"split_type":[0,0,0,0,0,0,0,0,0,0,0,0,0,0,0,0,0,0,0,0,0,0,0,0,0,0,0,0,0],"sum_hessian":[4.528E3,3.672E3,8.56E2,3.36E2,3.336E3,5.41E2,3.15E2,3E1,3.06E2,5.04E2,2.832E3,4.13E2,1.28E2,2.64E2,5.1E1,1.35E2,1.71E2,7.2E1,4.32E2,2.1E3,7.32E2,3.47E2,6.6E1,7.6E1,5.2E1,2E2,6.4E1,2.6E1,2.5E1],"tree_param":{"num_deleted":"0","num_feature":"30","num_nodes":"29","size_leaf_vector":"1"}},{"base_weights":[-5.8611315E-3,-5.569863E-2,2.0985078E-2,9.9999785E-2,-7.234495E-2,7.5959906E-2,-1.8100876E-2,2.636354E-1,5.262942E-3,9.677368E-2,-8.016404E-2,1.0934179E-1,-4.68749E-2,-1.7368376E-1,-8.805018E-3,1.0015802E-2,2.9724497E-2,-1.0748722E-2,8.902991E-3,-4.1444465E-3,1.8210648E-2,-7.8093293E-3,-0E0,2.3262713E-2,7.739573E-3,-8.600044E-3,1.047815E-2,-1.97328E-2,-0E0,1.599499E-3,-5.2127433E-3],"categories":[],"categories_nodes":[],"categories_segments":[],"categories_sizes":[],"default_left":[0,0,0,0,0,0,0,0,0,0,0,0,0,0,0,0,0,0,0,0,0,0,0,0,0,0,0,0,0,0,0],"id":34,"left_children":[1,3,5,7,9,11,13,15,17,19,21,23,25,27,29,-1,-1,-1,-1,-1,-1,-1,-1,-1,-1,-1,-1,-1,-1,-1,-1],"loss_changes":[5.9351373E0,4.025076E0,6.19483E0,2.3253446E0,1.8552613E0,4.91235E0,2.4369726E0,8.1838155E-1,1.4018266E0,1.2014735E0,1.8594704E0,2.1738043E0,2.7492893E0,1.1976366E0,2.5728793E0,0E0,0E0,0E0,0E0,0E0,0E0,0E0,0E0,0E0,0E0,0E0,0E0,0E0,0E0,0E0,0E0],"parents":[2147483647,0,0,1,1,2,2,3,3,4,4,5,5,6,6,7,7,8,8,9,9,10,10,11,11,12,12,13,13,14,14],"right_children":[2,4,6,8,10,12,14,16,18,20,22,24,26,28,30,-1,-1,-1,-1,-1,-1,-1,-1,-1,-1,-1,-1,-1,-1,-1,-1],"split_conditions":[6.7280066E-1,2.291784E-1,7.861401E-1,-1.1031842E0,2.5155314E-3,1.2854467E-1,7.745575E-1,6.0696346E-1,1.1901342E-1,7.909945E-1,3.8498813E-1,7.2383875E-1,7.9327196E-1,2.5776472E0,2.5542942E-1,8.965227E-3,5.4406375E-2,-5.188229E-3,4.3807058E-3,-1.1723458E-2,2.8308699E-2,-1.2207473E-2,-8.303147E-5,4.530565E-2,1.3582578E-2,-1.3367356E-2,2.0408323E-2,-1.78096E-2,-3.4725948E-3,2.0709124E-3,-7.846533E-3],"split_indices":[17,16,21,0,7,8,15,17,8,21,2,15,17,0,16,0,0,0,0,0,0,0,0,0,0,0,0,0,0,0,0],"split_type":[0,0,0,0,0,0,0,0,0,0,0,0,0,0,0,0,0,0,0,0,0,0,0,0,0,0,0,0,0,0,0],"sum_hessian":[4.436E3,1.553E3,2.883E3,1.5E2,1.403E3,1.198E3,1.685E3,5.5E1,9.5E1,6.2E1,1.341E3,9.42E2,2.56E2,9.5E1,1.59E3,2.4E1,3.1E1,4.1E1,5.4E1,2.9E1,3.3E1,1.103E3,2.38E2,6.2E1,8.8E2,1.91E2,6.5E1,6.7E1,2.8E1,1.052E3,5.38E2],"tree_param":{"num_deleted":"0","num_feature":"30","num_nodes":"31","size_leaf_vector":"1"}},{"base_weights":[2.7514813E-3,-1.7213091E-1,1.0091738E-2,-3.2050807E-2,-1.08391374E-1,2.6083106E-2,-4.601859E-2,-5.9321802E-2,-2.7243104E-2,9.669207E-2,4.7947755E-3,-9.167813E-3,-1.4728667E-1,-0E0,-2.3370294E-2,2.3177287E-3,1.2407422E-2,-3.9853905E-3,2.1955674E-3,1.8634237E-3,-7.6805903E-3,2.0545244E-3,-1.7806062E-2],"categories":[],"categories_nodes":[],"categories_segments":[],"categories_sizes":[],"default_left":[0,0,0,0,0,0,0,0,0,0,0,0,0,0,0,0,0,0,0,0,0,0,0],"id":35,"left_children":[1,3,5,-1,7,9,11,13,-1,15,17,19,21,-1,-1,-1,-1,-1,-1,-1,-1,-1,-1],"loss_changes":[5.831764E0,2.6579075E0,3.9121444E0,0E0,1.625159E0,5.100176E0,3.6086555E0,1.6263926E0,0E0,3.0975485E0,3.2138638E0,1.9927893E0,3.343264E0,0E0,0E0,0E0,0E0,0E0,0E0,0E0,0E0,0E0,0E0],"parents":[2147483647,0,0,1,1,2,2,4,4,5,5,6,6,7,7,9,9,10,10,11,11,12,12],"right_children":[2,4,6,-1,8,10,12,14,-1,16,18,20,22,-1,-1,-1,-1,-1,-1,-1,-1,-1,-1],"split_conditions":[7.418439E-1,2.9166177E-1,4.092408E-1,-2.9310223E-2,7.378311E-2,2.5158155E-1,2.4775067E-1,3.8274355E0,-5.4353055E-2,3.183653E-2,1.4591362E2,8.659961E-1,3.951552E-1,1.0352379E-4,-3.2359853E-2,2.0438689E-3,1.8233655E-2,-4.9926843E-3,3.4458016E-3,2.463892E-3,-7.979623E-3,3.6343257E-3,-1.8889358E-2],"split_indices":[24,2,27,0,14,10,10,0,0,19,23,24,28,0,0,0,0,0,0,0,0,0,0],"split_type":[0,0,0,0,0,0,0,0,0,0,0,0,0,0,0,0,0,0,0,0,0,0,0],"sum_hessian":[4.543E3,1.83E2,4.36E3,4E1,1.43E2,3.393E3,9.67E2,1.18E2,2.5E1,7.86E2,2.607E3,7.09E2,2.58E2,9.4E1,2.4E1,3.63E2,4.23E2,7.64E2,1.843E3,5.16E2,1.93E2,7.8E1,1.8E2],"tree_param":{"num_deleted":"0","num_feature":"30","num_nodes":"23","size_leaf_vector":"1"}},{"base_weights":[2.908273E-3,3.442739E-2,-5.0089967E-2,1.586655E-2,1.6666655E-1,-1.2480122E-1,-4.816936E-3,-2.0666605E-1,2.2870323E-2,-6.3257823E-3,1.9706826E-1,-1.4655165E-1,1.3265231E-1,1.8763773E-2,-1.6666636E-1,-3.6724783E-2,-7.070014E-3,5.138926E-3,1.5213956E-4,2.1409674E-2,6.7904345E-3,-8.168318E-3,-2.0508766E-2,3.3385567E-3,1.7627869E-2,3.501708E-3,-1.0641894E-2,-8.012708E-3,-2.4801217E-2],"categories":[],"categories_nodes":[],"categories_segments":[],"categories_sizes":[],"default_left":[0,0,0,0,0,0,0,0,0,0,0,0,0,0,0,0,0,0,0,0,0,0,0,0,0,0,0,0,0],"id":36,"left_children":[1,3,5,7,9,11,13,15,17,-1,19,21,23,25,27,-1,-1,-1,-1,-1,-1,-1,-1,-1,-1,-1,-1,-1,-1],"loss_changes":[7.466946E0,6.8798766E0,5.638467E0,3.830957E0,2.5761404E0,3.522232E0,3.9615557E0,2.2353563E0,2.0621877E0,0E0,2.4181948E0,2.830593E0,3.8941258E-1,3.4246805E0,1.2571235E0,0E0,0E0,0E0,0E0,0E0,0E0,0E0,0E0,0E0,0E0,0E0,0E0,0E0,0E0],"parents":[2147483647,0,0,1,1,2,2,3,3,4,4,5,5,6,6,7,7,8,8,10,10,11,11,12,12,13,13,14,14],"right_children":[2,4,6,8,10,12,14,16,18,-1,20,22,24,26,28,-1,-1,-1,-1,-1,-1,-1,-1,-1,-1,-1,-1,-1,-1],"split_conditions":[3.013746E-1,2.063973E-1,8.869568E-1,7.3422164E-1,5.705408E-2,2.1906683E-1,8.895604E0,3.0619994E-1,2.8050163E-1,-1.6269274E-2,2.6086858E-1,3.1583354E-1,5.03671E-1,3.3983603E-1,3.0178595E-1,-2.6309801E-2,-1.0493542E-2,6.2304023E-3,1.7145545E-4,3.570466E-2,1.1429285E-2,-1.5283793E-2,-4.4159163E-2,1.9464351E-2,3.898081E-2,6.2561003E-3,-1.8574048E-2,-1.1886853E-2,-3.543763E-2],"split_indices":[9,1,15,24,14,1,0,2,9,0,10,9,22,9,26,0,0,0,0,0,0,0,0,0,0,0,0,0,0],"split_type":[0,0,0,0,0,0,0,0,0,0,0,0,0,0,0,0,0,0,0,0,0,0,0,0,0,0,0,0,0],"sum_hessian":[4.47E3,2.803E3,1.667E3,2.458E3,3.45E2,6.29E2,1.038E3,7.5E1,2.383E3,3.8E1,3.07E2,5.8E2,4.9E1,9.06E2,1.32E2,2.4E1,5.1E1,8.03E2,1.58E3,1.89E2,1.18E2,4.12E2,1.68E2,2.4E1,2.5E1,7.78E2,1.28E2,9E1,4.2E1],"tree_param":{"num_deleted":"0","num_feature":"30","num_nodes":"29","size_leaf_vector":"1"}},{"base_weights":[3.7411926E-3,2.0171667E-2,-5.1000927E-2,5.8888055E-2,-4.6992386E-3,-8.1218235E-2,4.022979E-2,7.2683685E-2,-9.130407E-2,-1.231526E-2,1.5306082E-1,-2.0909049E-1,-6.0471937E-2,6.540073E-2,-1.6693048E-2,-5.723364E-3,7.0367795E-3,1.6025355E-2,-1.5554096E-2,1.6467657E-4,-6.983571E-3,3.004754E-2,6.4967815E-3,1.2923204E-3,-2.38353E-2,-2.0409726E-2,-3.5256012E-3,1.7170092E-2,9.209945E-4],"categories":[],"categories_nodes":[],"categories_segments":[],"categories_sizes":[],"default_left":[0,0,0,0,0,0,0,0,0,0,0,0,0,0,0,0,0,0,0,0,0,0,0,0,0,0,0,0,0],"id":37,"left_children":[1,3,5,7,9,11,13,15,17,19,21,23,25,27,-1,-1,-1,-1,-1,-1,-1,-1,-1,-1,-1,-1,-1,-1,-1],"loss_changes":[4.0870504E0,3.3653774E0,2.891829E0,2.8324175E0,2.5567982E0,2.0904593E0,1.6329508E0,2.7310061E0,3.444225E0,2.183252E0,1.5655403E0,2.1894703E0,2.169311E0,1.9021208E0,0E0,0E0,0E0,0E0,0E0,0E0,0E0,0E0,0E0,0E0,0E0,0E0,0E0,0E0,0E0],"parents":[2147483647,0,0,1,1,2,2,3,3,4,4,5,5,6,6,7,7,8,8,9,9,10,10,11,11,12,12,13,13],"right_children":[2,4,6,8,10,12,14,16,18,20,22,24,26,28,-1,-1,-1,-1,-1,-1,-1,-1,-1,-1,-1,-1,-1,-1,-1],"split_conditions":[1.2697025E-1,6.54827E-2,1.2578568E-1,6.6435086E-3,1.3069841E0,6.519867E-3,5.0473154E-1,1.114438E0,3.3968723E-1,2.6265952E-1,3.870001E-1,7.090436E-2,8.209506E-3,1.3260421E-1,-2.1561671E-2,-9.4139995E-3,1.1290349E-2,1.477787E-2,-2.5558889E-2,1.4336965E-4,-1.0254037E-2,3.357391E-2,1.099281E-2,1.6096908E-4,-3.1090282E-2,-2.1035742E-2,-7.0820926E-3,2.9445741E-2,7.1275915E-4],"split_indices":[8,29,11,6,20,5,22,20,27,4,27,29,13,8,0,0,0,0,0,0,0,0,0,0,0,0,0,0,0],"split_type":[0,0,0,0,0,0,0,0,0,0,0,0,0,0,0,0,0,0,0,0,0,0,0,0,0,0,0,0,0],"sum_hessian":[4.544E3,3.495E3,1.049E3,1.367E3,2.128E3,7.88E2,2.61E2,1.252E3,1.15E2,2.03E3,9.8E1,1.1E2,6.78E2,2.37E2,2.4E1,1.19E2,1.133E3,3E1,8.5E1,1.703E3,3.27E2,2.4E1,7.4E1,3.1E1,7.9E1,5.3E1,6.25E2,6.3E1,1.74E2],"tree_param":{"num_deleted":"0","num_feature":"30","num_nodes":"29","size_leaf_vector":"1"}},{"base_weights":[7.891725E-4,4.343174E-2,-4.671114E-2,-2.4801217E-2,4.9891055E-2,-1.874243E-2,-1.5090081E-1,2.6229495E-2,1.4301068E-1,-7.5635836E-2,2.8114637E-2,-2.3480636E-1,-9.315577E-2,-1.2264362E-2,2.9145626E-3,-1.1783347E-2,1.3292585E-2,-1.3736112E-2,7.064084E-4,-4.6803323E-3,8.447661E-3,-6.1635985E-3,-2.3913948E-2,4.4514863E-3,-1.1217817E-2],"categories":[],"categories_nodes":[],"categories_segments":[],"categories_sizes":[],"default_left":[0,0,0,0,0,0,0,0,0,0,0,0,0,0,0,0,0,0,0,0,0,0,0,0,0],"id":38,"left_children":[1,3,5,-1,7,9,11,13,15,17,19,21,23,-1,-1,-1,-1,-1,-1,-1,-1,-1,-1,-1,-1],"loss_changes":[8.98325E0,5.3279886E0,6.1136765E0,0E0,5.056698E0,4.409331E0,2.151227E0,3.3284626E0,3.0864372E0,6.0431366E0,6.067462E0,1.8187103E0,1.8321197E0,0E0,0E0,0E0,0E0,0E0,0E0,0E0,0E0,0E0,0E0,0E0,0E0],"parents":[2147483647,0,0,1,1,2,2,4,4,5,5,6,6,7,7,8,8,9,9,10,10,11,11,12,12],"right_children":[2,4,6,-1,8,10,12,14,16,18,20,22,24,-1,-1,-1,-1,-1,-1,-1,-1,-1,-1,-1,-1],"split_conditions":[2.9580885E-1,4.3149002E-2,4.624758E-1,-2.2183707E-2,2.0205644E-1,7.245329E-1,3.9016438E-1,1.9483377E-3,5.5437364E-2,6.792785E-2,1.573751E-1,1.5717309E-2,3.6633468E-1,-3.810782E-3,3.5931915E-3,-1.9469734E-2,2.555262E-2,-2.000791E-2,1.1887553E-3,-7.7131754E-3,1.4207694E-2,-6.4650597E-3,-2.9579224E-2,1.6586635E-3,-1.2691766E-2],"split_indices":[9,14,28,0,1,17,12,11,14,18,3,18,27,0,0,0,0,0,0,0,0,0,0,0,0],"split_type":[0,0,0,0,0,0,0,0,0,0,0,0,0,0,0,0,0,0,0,0,0,0,0,0,0],"sum_hessian":[4.435E3,2.337E3,2.098E3,4.2E1,2.295E3,1.654E3,4.44E2,1.83E3,4.65E2,7.47E2,9.07E2,1.81E2,2.63E2,9.8E1,1.732E3,3.4E1,4.31E2,3.5E2,3.97E2,4.28E2,4.79E2,5.2E1,1.29E2,6.3E1,2E2],"tree_param":{"num_deleted":"0","num_feature":"30","num_nodes":"25","size_leaf_vector":"1"}},{"base_weights":[7.004062E-3,3.8298763E-2,-2.8841482E-2,4.887562E-2,-8.695635E-2,-2.2474643E-2,-2.3738861E-2,6.641746E-2,-2.0454494E-2,-1.2264129E-1,1.12177115E-2,-1.6315746E-1,-1.6865583E-2,4.7397288E-3,3.0047629E-2,-1.0519499E-2,4.4515124E-3,-5.4139914E-3,-2.0031758E-2,-5.169472E-3,-2.792302E-2,-5.071343E-4,-9.115004E-3],"categories":[],"categories_nodes":[],"categories_segments":[],"categories_sizes":[],"default_left":[0,0,0,0,0,0,0,0,0,0,0,0,0,0,0,0,0,0,0,0,0,0,0],"id":39,"left_children":[1,3,5,7,9,-1,11,13,15,17,-1,19,21,-1,-1,-1,-1,-1,-1,-1,-1,-1,-1],"loss_changes":[4.9649787E0,3.1305149E0,2.6489863E0,2.6500535E0,1.4901948E0,0E0,1.937604E0,3.8985696E0,3.7066512E0,1.115233E0,0E0,1.7366703E0,1.96725E0,0E0,0E0,0E0,0E0,0E0,0E0,0E0,0E0,0E0,0E0],"parents":[2147483647,0,0,1,1,2,2,3,3,4,4,6,6,7,7,8,8,9,9,11,11,12,12],"right_children":[2,4,6,8,10,-1,12,14,16,18,-1,20,22,-1,-1,-1,-1,-1,-1,-1,-1,-1,-1],"split_conditions":[7.971919E-1,1.3918927E-1,7.166037E-1,8.604613E-1,1.608391E-1,-2.245789E-2,4.7916756E-3,2.6400378E-1,5.2724566E-2,4.705807E-1,2.7633846E-2,2.461683E-1,3.1889895E-1,5.216475E-3,4.4137422E-2,-1.2628705E-2,7.637673E-3,-1.0192398E-2,-2.9164644E-2,-2.583235E-3,-3.3346385E-2,-1.0545184E-3,-1.7652638E-2],"split_indices":[21,8,24,24,19,0,18,16,25,22,0,16,26,0,0,0,0,0,0,0,0,0,0],"split_type":[0,0,0,0,0,0,0,0,0,0,0,0,0,0,0,0,0,0,0,0,0,0,0],"sum_hessian":[4.426E3,2.363E3,2.063E3,2.179E3,1.84E2,4.1E1,2.022E3,1.739E3,4.4E2,1.59E2,2.5E1,9.5E1,1.927E3,1.699E3,4E1,1.79E2,2.61E2,1.11E2,4.8E1,6.2E1,3.3E1,1.738E3,1.89E2],"tree_param":{"num_deleted":"0","num_feature":"30","num_nodes":"23","size_leaf_vector":"1"}},{"base_weights":[-5.316788E-3,1.1259884E-2,-4.9674246E-2,6.2694274E-2,-1.0124937E-2,1.01063654E-1,-7.692305E-2,1.3305312E-1,2.1381542E-2,-1.4448327E-2,2.0573132E-2,2.5755053E-2,6.2499825E-2,-2.0873764E-1,-4.436448E-2,1.34407105E-2,-7.671715E-3,4.2772325E-4,1.7418912E-2,2.132493E-3,-3.2314023E-3,-1.3354441E-2,8.735671E-3,-1.2637517E-2,-2.7411906E-2,2.924317E-4,-7.292911E-3],"categories":[],"categories_nodes":[],"categories_segments":[],"categories_sizes":[],"default_left":[0,0,0,0,0,0,0,0,0,0,0,0,0,0,0,0,0,0,0,0,0,0,0,0,0,0,0],"id":40,"left_children":[1,3,5,7,9,11,13,15,17,19,-1,-1,21,23,25,-1,-1,-1,-1,-1,-1,-1,-1,-1,-1,-1,-1],"loss_changes":[3.3191407E0,3.6143227E0,5.043922E0,2.804978E0,2.6780295E0,1.5976205E0,4.4633574E0,2.8333974E0,1.911953E0,2.4271781E0,0E0,0E0,1.705814E0,1.4016762E0,1.8681217E0,0E0,0E0,0E0,0E0,0E0,0E0,0E0,0E0,0E0,0E0,0E0,0E0],"parents":[2147483647,0,0,1,1,2,2,3,3,4,4,5,5,6,6,7,7,8,8,9,9,12,12,13,13,14,14],"right_children":[2,4,6,8,10,12,14,16,18,20,-1,-1,22,24,26,-1,-1,-1,-1,-1,-1,-1,-1,-1,-1,-1,-1],"split_conditions":[1.24966905E-1,7.809409E-1,2.4270733E-1,1.08828075E-1,1.2418027E-1,4.4036826E-1,2.9850292E-1,4.969817E-1,4.3336523E-1,6.628992E-2,2.6694447E-2,3.6861856E-2,1.2747253E-1,2.8511643E-1,1.3260421E-1,3.0480372E-2,-9.42707E-3,9.464372E-4,1.977201E-2,2.5814895E-3,-3.800603E-3,-2.105047E-2,1.7276974E-2,-2.6314743E-2,-3.7117857E-2,1.6581669E-4,-1.0208594E-2],"split_indices":[8,21,10,8,8,22,2,28,2,14,0,0,8,2,8,0,0,0,0,0,0,0,0,0,0,0,0],"split_type":[0,0,0,0,0,0,0,0,0,0,0,0,0,0,0,0,0,0,0,0,0,0,0,0,0,0,0],"sum_hessian":[4.514E3,3.286E3,1.228E3,9.65E2,2.321E3,1.88E2,1.04E3,3.57E2,6.08E2,2.284E3,3.7E1,2.8E1,1.6E2,2.06E2,8.34E2,3.1E2,4.7E1,5.62E2,4.6E1,8.83E2,1.401E3,2.7E1,1.33E2,1.49E2,5.7E1,4.11E2,4.23E2],"tree_param":{"num_deleted":"0","num_feature":"30","num_nodes":"27","size_leaf_vector":"1"}},{"base_weights":[8.557453E-3,3.633217E-2,-4.1330002E-2,-4.9999934E-2,5.0200794E-2,-2.2519048E-1,-2.5033815E-2,-9.7901985E-2,7.0175186E-2,-5.9241578E-2,6.0333468E-2,-3.2050762E-2,-1.7326692E-1,1.5591355E-1,-3.7184097E-2,-5.6314324E-3,-2.2738729E-2,-7.070014E-3,1.5898231E-2,-1.2057972E-2,2.2257431E-3,6.411088E-3,-8.044883E-4,-2.6708697E-3,-2.2893455E-2,2.2257082E-3,1.8977465E-2,-1.0523628E-2,-1.5778492E-3],"categories":[],"categories_nodes":[],"categories_segments":[],"categories_sizes":[],"default_left":[0,0,0,0,0,0,0,0,0,0,0,0,0,0,0,0,0,0,0,0,0,0,0,0,0,0,0,0,0],"id":41,"left_children":[1,3,5,7,9,11,13,15,17,19,21,-1,23,25,27,-1,-1,-1,-1,-1,-1,-1,-1,-1,-1,-1,-1,-1,-1],"loss_changes":[6.2338605E0,3.4602182E0,4.8209205E0,2.3026562E0,2.7612705E0,1.1890168E0,3.2494733E0,1.4683707E0,2.3158E0,1.675329E0,3.1559467E0,0E0,1.5892382E0,9.6438503E-1,2.2810097E0,0E0,0E0,0E0,0E0,0E0,0E0,0E0,0E0,0E0,0E0,0E0,0E0,0E0,0E0],"parents":[2147483647,0,0,1,1,2,2,3,3,4,4,5,5,6,6,7,7,8,8,9,9,10,10,12,12,13,13,14,14],"right_children":[2,4,6,8,10,12,14,16,18,20,22,-1,24,26,28,-1,-1,-1,-1,-1,-1,-1,-1,-1,-1,-1,-1,-1,-1],"split_conditions":[3.013746E-1,2.3088296E-1,1.1297412E0,1.5035896E2,3.6279191E-3,-2.0463872E0,2.3215425E-1,3.153377E-1,-3.2408554E-2,1.4603702E2,2.6415464E-1,-4.45325E-2,2.2659943E0,-3.370935E-1,1.766274E-2,-5.248722E-3,-2.044759E-2,-1.0420465E-2,3.4804758E-2,-1.3007475E-2,2.8071941E-3,6.726128E-3,-9.6954213E-4,-9.810861E-3,-2.6044523E-2,3.614491E-3,3.2444537E-2,-1.1303259E-2,-2.6078934E-3],"split_indices":[9,4,20,23,11,0,10,26,6,23,10,0,0,0,25,0,0,0,0,0,0,0,0,0,0,0,0,0,0],"split_type":[0,0,0,0,0,0,0,0,0,0,0,0,0,0,0,0,0,0,0,0,0,0,0,0,0,0,0,0,0],"sum_hessian":[4.499E3,2.89E3,1.609E3,4E2,2.49E3,1.31E2,1.478E3,2.86E2,1.14E2,2.11E2,2.279E3,3E1,1.01E2,9.3E1,1.385E3,2.49E2,3.7E1,5.1E1,6.3E1,1.03E2,1.08E2,1.781E3,4.98E2,4.5E1,5.6E1,3.6E1,5.7E1,2.17E2,1.168E3],"tree_param":{"num_deleted":"0","num_feature":"30","num_nodes":"29","size_leaf_vector":"1"}},{"base_weights":[-5.3811613E-3,1.9700415E-2,-6.0835112E-2,-2.7058804E-2,5.2895308E-2,-1.6818172E-1,-1.1064256E-2,4.50121E-2,-6.134256E-2,5.9659075E-2,-2.225748E-2,-2.3684193E-1,-4.193532E-2,-2.8192773E-2,-1.0845771E-3,-2.6248453E-2,5.873204E-3,-5.696029E-3,1.9289773E-2,2.0015943E-3,1.1802322E-2,-7.579582E-3,-2.297489E-2,-1.1128774E-2,1.4491048E-2,-4.0813275E-3,4.269821E-3],"categories":[],"categories_nodes":[],"categories_segments":[],"categories_sizes":[],"default_left":[0,0,0,0,0,0,0,0,0,0,0,0,0,0,0,0,0,0,0,0,0,0,0,0,0,0,0],"id":42,"left_children":[1,3,5,7,9,11,13,15,17,19,-1,21,23,-1,25,-1,-1,-1,-1,-1,-1,-1,-1,-1,-1,-1,-1],"loss_changes":[6.203293E0,4.7667065E0,7.421053E0,3.1503494E0,4.016906E0,3.813961E0,3.227473E0,4.3316717E0,2.5433292E0,5.348817E0,0E0,2.0224657E0,3.3479695E0,0E0,2.499099E0,0E0,0E0,0E0,0E0,0E0,0E0,0E0,0E0,0E0,0E0,0E0,0E0],"parents":[2147483647,0,0,1,1,2,2,3,3,4,4,5,5,6,6,7,7,8,8,9,9,11,11,12,12,14,14],"right_children":[2,4,6,8,10,12,14,16,18,20,-1,22,24,-1,26,-1,-1,-1,-1,-1,-1,-1,-1,-1,-1,-1,-1],"split_conditions":[3.053238E-1,1.1575807E0,7.0642745E-1,1.8581374E-2,1.356746E0,1.0923662E-1,1.1029509E0,6.364132E-1,1.498867E-1,8.001545E-2,-2.1388846E-2,1.0836723E-1,1.3143557E-1,-2.6029704E-2,8.0590403E-1,-3.1681553E-2,4.3855584E-3,-6.3152276E-3,3.0012896E-2,2.917734E-3,1.9468604E-2,-1.4120169E-2,-2.8337305E-2,-1.78832E-2,2.1199623E-2,-6.899147E-3,6.883821E-3],"split_indices":[9,20,17,13,13,11,20,17,8,14,0,8,8,0,17,0,0,0,0,0,0,0,0,0,0,0,0],"split_type":[0,0,0,0,0,0,0,0,0,0,0,0,0,0,0,0,0,0,0,0,0,0,0,0,0,0,0],"sum_hessian":[4.46E3,3.071E3,1.389E3,1.275E3,1.796E3,4.4E2,9.49E2,4.11E2,8.64E2,1.76E3,3.6E1,2.85E2,1.55E2,2.7E1,9.22E2,2.9E1,3.82E2,8.37E2,2.7E1,1.261E3,4.99E2,7.4E1,2.11E2,1.08E2,4.7E1,4.81E2,4.41E2],"tree_param":{"num_deleted":"0","num_feature":"30","num_nodes":"27","size_leaf_vector":"1"}},{"base_weights":[1.0082859E-3,-3.897549E-2,2.7934E-2,-7.86463E-2,1.6733572E-2,4.0072482E-2,-1.3586937E-1,-7.731905E-3,-1.20272264E-1,4.9363017E-2,-1.5546185E-1,-6.0605958E-2,5.205046E-2,-3.703681E-2,-2.7631506E-1,-8.102753E-3,5.7233726E-3,-7.1542254E-3,-2.3403494E-2,5.2786577E-3,-1.7805975E-2,-4.68274E-3,-2.6709005E-2,-1.0636301E-3,-2.7411863E-2,2.3141468E-3,9.710224E-3,-9.39762E-3,1.6322106E-2,-3.074642E-2,-1.092637E-2],"categories":[],"categories_nodes":[],"categories_segments":[],"categories_sizes":[],"default_left":[0,0,0,0,0,0,0,0,0,0,0,0,0,0,0,0,0,0,0,0,0,0,0,0,0,0,0,0,0,0,0],"id":43,"left_children":[1,3,5,7,9,11,13,15,17,19,21,23,25,27,29,-1,-1,-1,-1,-1,-1,-1,-1,-1,-1,-1,-1,-1,-1,-1,-1],"loss_changes":[4.804828E0,3.9692042E0,5.3028603E0,3.09652E0,4.1971245E0,2.9943101E0,2.554026E0,2.868449E0,3.5189524E0,2.8167639E0,2.053583E0,3.5174685E0,3.5544286E0,2.0864015E0,1.1423793E0,0E0,0E0,0E0,0E0,0E0,0E0,0E0,0E0,0E0,0E0,0E0,0E0,0E0,0E0,0E0,0E0],"parents":[2147483647,0,0,1,1,2,2,3,3,4,4,5,5,6,6,7,7,8,8,9,9,10,10,11,11,12,12,13,13,14,14],"right_children":[2,4,6,8,10,12,14,16,18,20,22,24,26,28,30,-1,-1,-1,-1,-1,-1,-1,-1,-1,-1,-1,-1,-1,-1,-1,-1],"split_conditions":[6.825126E-1,5.00599E-2,2.663867E-1,2.4732584E-1,2.4245073E-1,2.2996339E-1,-1.887629E-1,1.1457816E0,1.2098091E0,9.2038465E-1,1.240024E-1,3.8991588E-1,7.984298E-1,1.2366054E0,8.266774E-3,-9.147902E-3,8.5101E-3,-8.613028E-3,-2.8717604E-2,9.372158E-3,-1.821213E-2,-1.1109837E-2,-4.1251946E-2,-1.3325565E-3,-3.270471E-2,3.099266E-3,1.6460365E-2,-7.819203E-3,9.213088E-3,-2.884321E-2,-1.2494203E-2],"split_indices":[17,19,16,4,16,4,6,20,20,15,8,2,17,20,5,0,0,0,0,0,0,0,0,0,0,0,0,0,0,0,0],"split_type":[0,0,0,0,0,0,0,0,0,0,0,0,0,0,0,0,0,0,0,0,0,0,0,0,0,0,0,0,0,0,0],"sum_hessian":[4.463E3,1.796E3,2.667E3,1.049E3,7.47E2,2.483E3,1.84E2,3.88E2,6.61E2,6.28E2,1.19E2,2.64E2,2.219E3,1.08E2,7.6E1,1.78E2,2.1E2,5.6E2,1.01E2,5.92E2,3.6E1,7.7E1,4.2E1,2.26E2,3.8E1,1.662E3,5.57E2,8.1E1,2.7E1,4.3E1,3.3E1],"tree_param":{"num_deleted":"0","num_feature":"30","num_nodes":"31","size_leaf_vector":"1"}},{"base_weights":[4.9331244E-3,-3.9691277E-2,3.4401156E-2,3.472166E-2,-4.7645725E-2,6.707315E-2,-1.4001787E-2,-2.7329179E-2,-2.356319E-1,4.6511153E-3,8.9256175E-2,3.2526437E-2,-8.295957E-2,-4.7726855E-3,5.175686E-3,-2.4610518E-2,4.7133104E-3,1.1783407E-2,-3.1757741E-3,5.2694962E-3,1.8210744E-2,-1.7088733E-3,1.0225448E-2,1.7627869E-2,-8.088862E-3],"categories":[],"categories_nodes":[],"categories_segments":[],"categories_sizes":[],"default_left":[0,0,0,0,0,0,0,0,0,0,0,0,0,0,0,0,0,0,0,0,0,0,0,0,0],"id":44,"left_children":[1,3,5,-1,7,9,11,13,15,17,19,21,23,-1,-1,-1,-1,-1,-1,-1,-1,-1,-1,-1,-1],"loss_changes":[5.9976845E0,6.825407E0,4.3441653E0,0E0,6.8135014E0,2.2709217E0,3.5517929E0,4.770557E0,3.6638594E0,2.7118137E0,3.9231777E0,3.3848767E0,2.4308574E0,0E0,0E0,0E0,0E0,0E0,0E0,0E0,0E0,0E0,0E0,0E0,0E0],"parents":[2147483647,0,0,1,1,2,2,4,4,5,5,6,6,7,7,8,8,9,9,10,10,11,11,12,12],"right_children":[2,4,6,-1,8,10,12,14,16,18,20,22,24,-1,-1,-1,-1,-1,-1,-1,-1,-1,-1,-1,-1],"split_conditions":[6.815143E-1,2.2279522E-1,3.047922E-1,3.66823E-2,3.1431627E-1,2.3786184E-1,4.3005103E-1,1.2118877E-1,3.276235E-1,2.177033E-2,8.001818E-1,4.0029705E-1,2.3075265E-1,-6.3274344E-3,1.20579135E-2,-4.4163305E-2,2.0520864E-3,1.6017219E-2,-3.928378E-3,5.4094982E-3,2.985073E-2,-3.6403285E-3,1.4407853E-2,2.645807E-2,-1.2423475E-2],"split_indices":[17,10,9,0,9,4,28,25,25,13,17,28,10,0,0,0,0,0,0,0,0,0,0,0,0],"split_type":[0,0,0,0,0,0,0,0,0,0,0,0,0,0,0,0,0,0,0,0,0,0,0,0,0],"sum_hessian":[4.561E3,1.814E3,2.747E3,3E1,1.784E3,1.64E3,1.107E3,1.61E3,1.74E2,4.3E2,1.21E3,6.61E2,4.46E2,1.192E3,4.18E2,1.4E2,3.4E1,1.02E2,3.28E2,1.034E3,1.76E2,4.22E2,2.39E2,2.5E1,4.21E2],"tree_param":{"num_deleted":"0","num_feature":"30","num_nodes":"25","size_leaf_vector":"1"}},{"base_weights":[-4.023241E-3,1.1757264E-2,-1.2427739E-1,-1.2989381E-2,6.710309E-2,-2.0114926E-1,-4.6511527E-2,1.4799143E-2,-7.5505316E-2,1.237623E-1,2.719662E-2,1.0386774E-2,-2.3931603E-1,-2.3040548E-3,-2.2474643E-2,3.409674E-3,-2.8702314E-3,-1.788554E-2,-4.23169E-3,9.4637286E-4,1.2930599E-2,-2.1367155E-2,3.2074247E-3,-1.3686332E-2,-3.128253E-2,5.5717556E-3,-1.3354513E-2],"categories":[],"categories_nodes":[],"categories_segments":[],"categories_sizes":[],"default_left":[0,0,0,0,0,0,0,0,0,0,0,0,0,0,0,0,0,0,0,0,0,0,0,0,0,0,0],"id":45,"left_children":[1,3,5,7,9,11,13,15,17,19,21,-1,23,25,-1,-1,-1,-1,-1,-1,-1,-1,-1,-1,-1,-1,-1],"loss_changes":[8.490184E0,5.4168615E0,3.10258E0,4.7478395E0,2.7630239E0,3.2950583E0,2.6686034E0,2.6580882E0,2.819018E0,2.12648E0,2.703779E0,0E0,2.4221783E0,2.5623002E0,0E0,0E0,0E0,0E0,0E0,0E0,0E0,0E0,0E0,0E0,0E0,0E0,0E0],"parents":[2147483647,0,0,1,1,2,2,3,3,4,4,5,5,6,6,7,7,8,8,9,9,10,10,12,12,13,13],"right_children":[2,4,6,8,10,12,14,16,18,20,22,-1,24,26,-1,-1,-1,-1,-1,-1,-1,-1,-1,-1,-1,-1,-1],"split_conditions":[3.2134256E-1,7.341122E-1,7.7533215E-1,2.9580885E-1,4.6911247E-2,2.3522808E-1,8.086187E0,4.7403854E-1,7.5523937E-1,5.3973988E-2,5.0858352E-3,1.8117102E-2,4.3256018E-1,5.8962684E-2,-3.0947387E-2,4.8965286E-3,-4.154606E-3,-2.1408534E-2,-5.4361545E-3,2.133996E-3,2.245477E-2,-1.1877995E-2,4.0952973E-3,-3.389637E-2,-6.561957E-2,9.898015E-3,-1.7033339E-2],"split_indices":[9,17,17,9,13,26,0,28,15,29,5,0,28,7,0,0,0,0,0,0,0,0,0,0,0,0,0],"split_type":[0,0,0,0,0,0,0,0,0,0,0,0,0,0,0,0,0,0,0,0,0,0,0,0,0,0,0],"sum_hessian":[4.474E3,3.955E3,5.19E2,2.733E3,1.222E3,2.61E2,2.58E2,1.892E3,8.41E2,5.05E2,7.17E2,2.7E1,2.34E2,2.17E2,4.1E1,1.222E3,6.7E2,1.12E2,7.29E2,1.27E2,3.78E2,3E1,6.87E2,1.61E2,7.3E1,1.51E2,6.6E1],"tree_param":{"num_deleted":"0","num_feature":"30","num_nodes":"27","size_leaf_vector":"1"}},{"base_weights":[-6.705365E-4,-1.8749966E-1,4.8320247E-3,-2.968741E-1,-7.812454E-2,3.340882E-2,-1.4728674E-2,-1.3354452E-2,-3.2993454E-2,-2.0031696E-2,4.4514607E-3,-4.716973E-2,5.1104955E-2,-5.8766834E-2,1.491568E-2,1.3418376E-3,-1.359957E-2,1.8490857E-2,3.5586641E-3,-6.3484185E-3,1.0015895E-2,-4.3043587E-3,3.711001E-3],"categories":[],"categories_nodes":[],"categories_segments":[],"categories_sizes":[],"default_left":[0,0,0,0,0,0,0,0,0,0,0,0,0,0,0,0,0,0,0,0,0,0,0],"id":46,"left_children":[1,3,5,7,9,11,13,-1,-1,-1,-1,15,17,19,21,-1,-1,-1,-1,-1,-1,-1,-1],"loss_changes":[4.5994487E0,1.5312347E0,2.4293365E0,9.5738983E-1,1.4704696E0,2.518191E0,3.3681467E0,0E0,0E0,0E0,0E0,2.4909644E0,1.741029E0,3.9031684E0,3.3230054E0,0E0,0E0,0E0,0E0,0E0,0E0,0E0,0E0],"parents":[2147483647,0,0,1,1,2,2,3,3,4,4,5,5,6,6,11,11,12,12,13,13,14,14],"right_children":[2,4,6,8,10,12,14,-1,-1,-1,-1,16,18,20,22,-1,-1,-1,-1,-1,-1,-1,-1],"split_conditions":[4.969158E-3,1.7932972E-1,6.714775E-2,9.080725E-2,1.1427362E-1,6.534203E-1,1.9111905E-1,-4.216708E-2,-2.7637277E-2,-1.9588115E-2,8.794783E-3,2.9246044E-1,3.129408E-1,1.9368497E-1,1.573751E-1,1.0970245E-3,-2.1002904E-2,1.9540466E-2,4.5065857E-3,-7.444172E-3,1.1237735E-2,-6.0256273E-3,5.390289E-3],"split_indices":[5,1,14,14,14,17,1,0,0,0,0,26,12,18,3,0,0,0,0,0,0,0,0],"split_type":[0,0,0,0,0,0,0,0,0,0,0,0,0,0,0,0,0,0,0,0,0,0,0],"sum_hessian":[4.474E3,1.28E2,4.346E3,6.4E1,6.4E1,1.766E3,2.58E3,3E1,3.4E1,2.8E1,3.6E1,3.18E2,1.448E3,1.038E3,1.542E3,2.09E2,1.09E2,5.2E1,1.396E3,9.34E2,1.04E2,4.84E2,1.058E3],"tree_param":{"num_deleted":"0","num_feature":"30","num_nodes":"23","size_leaf_vector":"1"}},{"base_weights":[8.572697E-3,5.662318E-2,-1.45023E-2,-4.4909874E-3,1.0836498E-1,-9.5652126E-2,9.385657E-3,-6.0439486E-2,6.2499907E-2,-3.278669E-2,1.3418286E-1,-1.3999993E-1,2.3254878E-3,2.3833156E-2,-7.878779E-2,4.2343563E-3,-9.475633E-3,8.076069E-3,-1.0212256E-2,3.717228E-3,-2.7243104E-2,3.0448291E-2,9.155555E-3,3.0817918E-3,-1.3484842E-2,2.9520509E-3,-2.0832947E-2,-2.3024992E-4,6.6987476E-3,-1.0386869E-2,5.065498E-3],"categories":[],"categories_nodes":[],"categories_segments":[],"categories_sizes":[],"default_left":[0,0,0,0,0,0,0,0,0,0,0,0,0,0,0,0,0,0,0,0,0,0,0,0,0,0,0,0,0,0,0],"id":47,"left_children":[1,3,5,7,9,11,13,15,17,19,21,23,25,27,29,-1,-1,-1,-1,-1,-1,-1,-1,-1,-1,-1,-1,-1,-1,-1,-1],"loss_changes":[4.9794636E0,4.607265E0,5.881422E0,2.5036917E0,2.8753061E0,2.9981165E0,2.9859877E0,2.3841515E0,2.21108E0,2.9675863E0,3.2661076E0,2.398344E0,1.9467114E0,3.214766E0,2.3825436E0,0E0,0E0,0E0,0E0,0E0,0E0,0E0,0E0,0E0,0E0,0E0,0E0,0E0,0E0,0E0,0E0],"parents":[2147483647,0,0,1,1,2,2,3,3,4,4,5,5,6,6,7,7,8,8,9,9,10,10,11,11,12,12,13,13,14,14],"right_children":[2,4,6,8,10,12,14,16,18,20,22,24,26,28,30,-1,-1,-1,-1,-1,-1,-1,-1,-1,-1,-1,-1,-1,-1,-1,-1],"split_conditions":[2.8618404E-1,4.4225883E-1,6.626538E-1,3.400372E-2,5.7450783E-2,1.2578568E-1,3.26583E-1,2.916967E-1,2.4541341E-1,4.8685268E-2,-1.39308E-1,6.9901203E-3,3.1356034E-1,7.807232E-1,1.6493388E-1,4.097643E-3,-1.1545295E-2,7.445203E-3,-1.3523306E-2,3.1806056E-3,-4.805636E-2,5.949679E-2,1.5360535E-2,1.020442E-3,-1.9248283E-2,4.3849354E-3,-4.6096597E-2,-6.122551E-4,8.757939E-3,-2.2215122E-2,6.4163734E-3],"split_indices":[9,22,17,7,14,11,9,26,16,13,6,7,26,17,25,0,0,0,0,0,0,0,0,0,0,0,0,0,0,0,0],"split_type":[0,0,0,0,0,0,0,0,0,0,0,0,0,0,0,0,0,0,0,0,0,0,0,0,0,0,0,0,0,0,0],"sum_hessian":[4.491E3,1.457E3,3.034E3,6.68E2,7.89E2,6.9E2,2.344E3,3.64E2,3.04E2,1.22E2,6.67E2,4.75E2,2.15E2,2.014E3,3.3E2,1.23E2,2.41E2,2.53E2,5.1E1,9.7E1,2.5E1,5E1,6.17E2,6.5E1,4.1E2,1.9E2,2.5E1,1.392E3,6.22E2,2.43E2,8.7E1],"tree_param":{"num_deleted":"0","num_feature":"30","num_nodes":"31","size_leaf_vector":"1"}},{"base_weights":[2.587172E-3,2.8035639E-2,-3.6529668E-2,2.064839E-2,2.1568581E-1,1.5048505E-1,-4.821102E-2,3.7786435E-2,-4.4444397E-2,3.1401116E-2,1.1538409E-1,2.6708959E-2,7.534206E-2,-2.9041272E-2,-1.7272708E-1,4.4464264E-3,-5.1567047E-3,-7.4659297E-3,5.7953615E-3,-1.1446272E-3,2.1367155E-2,-1.6693048E-2,1.7170073E-2,-7.851671E-3,-1.9429372E-4,-2.4945268E-2,-3.5143406E-3],"categories":[],"categories_nodes":[],"categories_segments":[],"categories_sizes":[],"default_left":[0,0,0,0,0,0,0,0,0,0,0,0,0,0,0,0,0,0,0,0,0,0,0,0,0,0,0],"id":48,"left_children":[1,3,5,7,9,11,13,15,17,-1,19,-1,21,23,25,-1,-1,-1,-1,-1,-1,-1,-1,-1,-1,-1,-1],"loss_changes":[4.4248357E0,3.7330813E0,3.8273928E0,2.890424E0,1.8026924E0,1.4151702E0,3.936063E0,3.70922E0,3.0728307E0,0E0,1.2750776E0,0E0,2.8772585E0,2.6224527E0,3.9292297E0,0E0,0E0,0E0,0E0,0E0,0E0,0E0,0E0,0E0,0E0,0E0,0E0],"parents":[2147483647,0,0,1,1,2,2,3,3,4,4,5,5,6,6,7,7,8,8,10,10,12,12,13,13,14,14],"right_children":[2,4,6,8,10,12,14,16,18,-1,20,-1,22,24,26,-1,-1,-1,-1,-1,-1,-1,-1,-1,-1,-1,-1],"split_conditions":[2.9963166E-1,2.1487704E-1,2.3075265E-1,1.2854467E-1,8.310783E-2,9.3155295E-2,1.3492002E-1,4.116622E-1,4.8938237E-2,3.8700007E-2,1.2417216E0,2.4996849E-2,4.498977E-1,1.006106E-1,1.1934615E0,5.2902587E-3,-8.059768E-3,-7.6579712E-3,6.9444757E-3,-8.644685E-4,3.0259406E-2,-2.0509545E-2,2.563686E-2,-1.1473776E-2,-5.762128E-4,-3.7277926E-2,-6.6012843E-3],"split_indices":[9,1,10,8,25,29,8,27,7,0,20,0,27,8,20,0,0,0,0,0,0,0,0,0,0,0,0],"split_type":[0,0,0,0,0,0,0,0,0,0,0,0,0,0,0,0,0,0,0,0,0,0,0,0,0,0,0],"sum_hessian":[4.445E3,2.693E3,1.752E3,2.591E3,1.02E2,1.03E2,1.649E3,2.051E3,5.4E2,3.7E1,6.5E1,3E1,7.3E1,1.429E3,2.2E2,1.748E3,3.03E2,3.81E2,1.59E2,3.5E1,3E1,2.4E1,4.9E1,3.98E2,1.031E3,1.06E2,1.14E2],"tree_param":{"num_deleted":"0","num_feature":"30","num_nodes":"27","size_leaf_vector":"1"}},{"base_weights":[-3.3534097E-4,-2.5952686E-2,5.423371E-2,-2.0721918E-2,-3.269219E-1,7.934506E-2,-7.142845E-2,7.491279E-2,-3.0868752E-2,-4.006345E-2,-1.0015802E-2,1.3915086E-1,4.628419E-2,-2.2881272E-1,-1.9552948E-2,-1.42160375E-2,8.4509235E-3,-7.98289E-3,-1.1087728E-3,3.3641108E-3,1.4630754E-2,1.3663319E-2,8.0936454E-4,-2.5494928E-2,-9.24536E-3,3.4162677E-3,-1.4422858E-2],"categories":[],"categories_nodes":[],"categories_segments":[],"categories_sizes":[],"default_left":[0,0,0,0,0,0,0,0,0,0,0,0,0,0,0,0,0,0,0,0,0,0,0,0,0,0,0],"id":49,"left_children":[1,3,5,7,9,11,13,15,17,-1,-1,19,21,23,25,-1,-1,-1,-1,-1,-1,-1,-1,-1,-1,-1,-1],"loss_changes":[6.25287E0,4.792163E0,4.5092773E0,2.9034052E0,1.8172755E0,2.3548784E0,1.94312E0,2.2128224E0,3.1676576E0,0E0,0E0,1.7897758E0,3.447854E0,5.9806395E-1,1.786048E0,0E0,0E0,0E0,0E0,0E0,0E0,0E0,0E0,0E0,0E0,0E0,0E0],"parents":[2147483647,0,0,1,1,2,2,3,3,4,4,5,5,6,6,7,7,8,8,11,11,12,12,13,13,14,14],"right_children":[2,4,6,8,10,12,14,16,18,-1,-1,20,22,24,26,-1,-1,-1,-1,-1,-1,-1,-1,-1,-1,-1,-1],"split_conditions":[1.986625E-1,1.0853687E-2,4.092408E-1,2.3698102E-1,3.251336E-1,4.074381E-2,1.6719086E-2,1.7769453E-1,6.527818E-1,-2.2579059E-2,-1.0315068E-2,2.0291096E-1,2.5203362E-1,4.268881E-1,2.6357874E-1,-5.022814E-3,1.14603285E-2,-1.10363625E-2,-1.1260683E-3,8.234258E-3,2.1371327E-2,1.700015E-2,1.551405E-3,-4.692264E-2,-2.8246531E-2,4.235351E-3,-3.0191025E-2],"split_indices":[1,5,27,10,26,11,7,1,17,0,0,1,10,27,4,0,0,0,0,0,0,0,0,0,0,0,0],"split_type":[0,0,0,0,0,0,0,0,0,0,0,0,0,0,0,0,0,0,0,0,0,0,0,0,0,0,0],"sum_hessian":[4.473E3,3.044E3,1.429E3,2.992E3,5.2E1,1.191E3,2.38E2,2.87E2,2.705E3,2.8E1,2.4E1,4.24E2,7.67E2,5.9E1,1.79E2,3.1E1,2.56E2,5.37E2,2.168E3,1.31E2,2.93E2,1.73E2,5.94E2,3.3E1,2.6E1,1.29E2,5E1],"tree_param":{"num_deleted":"0","num_feature":"30","num_nodes":"27","size_leaf_vector":"1"}},{"base_weights":[3.4698858E-3,1.3861862E-2,-1.1690131E-1,-5.120478E-2,2.6392104E-2,-1.9841246E-1,-2.4096247E-2,-3.2467492E-2,-2.916655E-1,-1.3555367E-2,5.0301332E-2,-3.089881E-1,-9.999967E-2,2.4589976E-2,-1.2747464E-2,-4.3547447E-3,1.2519852E-2,-3.004754E-2,-1.6693048E-2,2.797907E-3,-5.31589E-3,3.266488E-3,1.6886316E-2,-1.4308338E-2,-2.9555092E-2,1.4308338E-2,-1.669315E-2,-6.325803E-3,9.245424E-3],"categories":[],"categories_nodes":[],"categories_segments":[],"categories_sizes":[],